<?xml version="1.0"?>
<opencv_storage>
<cascade>
  <stageType>BOOST</stageType>
  <featureType>HAAR</featureType>
  <height>40</height>
  <width>80</width>
  <stageParams>
    <boostType>GAB</boostType>
    <minHitRate>9.9900001287460327e-01</minHitRate>
    <maxFalseAlarm>5.0000000000000000e-01</maxFalseAlarm>
    <weightTrimRate>9.4999999999999996e-01</weightTrimRate>
    <maxDepth>1</maxDepth>
    <maxWeakCount>100</maxWeakCount></stageParams>
  <featureParams>
    <maxCatCount>0</maxCatCount>
    <featSize>1</featSize>
    <mode>ALL</mode></featureParams>
  <stageNum>20</stageNum>
  <stages>
    <!-- stage 0 -->
    <_>
      <maxWeakCount>4</maxWeakCount>
      <stageThreshold>-1.1521496772766113e+00</stageThreshold>
      <weakClassifiers>
        <_>
          <internalNodes>
            0 -1 128 -2.8614368289709091e-02</internalNodes>
          <leafValues>
            6.7572635412216187e-01 -7.7277600765228271e-01</leafValues></_>
        <_>
          <internalNodes>
            0 -1 175 7.6339885592460632e-02</internalNodes>
          <leafValues>
            -6.0548859834671021e-01 7.0877218246459961e-01</leafValues></_>
        <_>
          <internalNodes>
            0 -1 29 8.2281921058893204e-03</internalNodes>
          <leafValues>
            -4.8437353968620300e-01 7.2620671987533569e-01</leafValues></_>
        <_>
          <internalNodes>
            0 -1 91 3.5530738532543182e-02</internalNodes>
          <leafValues>
            -4.7468614578247070e-01 7.1048849821090698e-01</leafValues></_></weakClassifiers></_>
    <!-- stage 1 -->
    <_>
      <maxWeakCount>6</maxWeakCount>
      <stageThreshold>-1.1502752304077148e+00</stageThreshold>
      <weakClassifiers>
        <_>
          <internalNodes>
            0 -1 11 2.9402934014797211e-02</internalNodes>
          <leafValues>
            -6.5873014926910400e-01 6.6935485601425171e-01</leafValues></_>
        <_>
          <internalNodes>
            0 -1 196 3.5644132643938065e-02</internalNodes>
          <leafValues>
            -6.6889846324920654e-01 5.6599873304367065e-01</leafValues></_>
        <_>
          <internalNodes>
            0 -1 2 6.4408242702484131e-02</internalNodes>
          <leafValues>
            -4.4569227099418640e-01 6.7670267820358276e-01</leafValues></_>
        <_>
          <internalNodes>
            0 -1 100 -4.6274673193693161e-02</internalNodes>
          <leafValues>
            7.2691458463668823e-01 -4.5920220017433167e-01</leafValues></_>
        <_>
          <internalNodes>
            0 -1 168 1.3895792653784156e-04</internalNodes>
          <leafValues>
            -6.2089037895202637e-01 3.6841762065887451e-01</leafValues></_>
        <_>
          <internalNodes>
            0 -1 64 2.7468878775835037e-02</internalNodes>
          <leafValues>
            -3.1513211131095886e-01 7.1383023262023926e-01</leafValues></_></weakClassifiers></_>
    <!-- stage 2 -->
    <_>
      <maxWeakCount>8</maxWeakCount>
      <stageThreshold>-1.3787679672241211e+00</stageThreshold>
      <weakClassifiers>
        <_>
          <internalNodes>
            0 -1 5 4.5385383069515228e-02</internalNodes>
          <leafValues>
            -4.3917170166969299e-01 6.0523188114166260e-01</leafValues></_>
        <_>
          <internalNodes>
            0 -1 264 1.4795444905757904e-02</internalNodes>
          <leafValues>
            -7.5726908445358276e-01 4.1266906261444092e-01</leafValues></_>
        <_>
          <internalNodes>
            0 -1 54 2.2441148757934570e-02</internalNodes>
          <leafValues>
            -3.8367748260498047e-01 7.1947884559631348e-01</leafValues></_>
        <_>
          <internalNodes>
            0 -1 273 3.0888050794601440e-02</internalNodes>
          <leafValues>
            -4.4235792756080627e-01 5.5567079782485962e-01</leafValues></_>
        <_>
          <internalNodes>
            0 -1 12 4.3986655771732330e-02</internalNodes>
          <leafValues>
            -2.4590522050857544e-01 7.4636214971542358e-01</leafValues></_>
        <_>
          <internalNodes>
            0 -1 8 -3.5519227385520935e-02</internalNodes>
          <leafValues>
            4.5914980769157410e-01 -4.8206976056098938e-01</leafValues></_>
        <_>
          <internalNodes>
            0 -1 201 -7.2082249971572310e-05</internalNodes>
          <leafValues>
            -7.6898425817489624e-01 2.0484015345573425e-01</leafValues></_>
        <_>
          <internalNodes>
            0 -1 227 5.5881682783365250e-04</internalNodes>
          <leafValues>
            -7.7240520715713501e-01 2.3568023741245270e-01</leafValues></_></weakClassifiers></_>
    <!-- stage 3 -->
    <_>
      <maxWeakCount>12</maxWeakCount>
      <stageThreshold>-1.3853695392608643e+00</stageThreshold>
      <weakClassifiers>
        <_>
          <internalNodes>
            0 -1 58 -2.6769787073135376e-02</internalNodes>
          <leafValues>
            3.9983236789703369e-01 -5.9107804298400879e-01</leafValues></_>
        <_>
          <internalNodes>
            0 -1 0 2.2298535704612732e-01</internalNodes>
          <leafValues>
            -4.4216564297676086e-01 5.1521027088165283e-01</leafValues></_>
        <_>
          <internalNodes>
            0 -1 68 1.4780610799789429e-02</internalNodes>
          <leafValues>
            -3.3207285404205322e-01 6.5644788742065430e-01</leafValues></_>
        <_>
          <internalNodes>
            0 -1 127 -1.6543153673410416e-02</internalNodes>
          <leafValues>
            2.4779303371906281e-01 -7.4224042892456055e-01</leafValues></_>
        <_>
          <internalNodes>
            0 -1 242 1.7968220636248589e-02</internalNodes>
          <leafValues>
            -4.3499290943145752e-01 4.7007748484611511e-01</leafValues></_>
        <_>
          <internalNodes>
            0 -1 111 -4.2237333953380585e-02</internalNodes>
          <leafValues>
            5.7779812812805176e-01 -3.0198025703430176e-01</leafValues></_>
        <_>
          <internalNodes>
            0 -1 17 1.1569695547223091e-02</internalNodes>
          <leafValues>
            -4.8483049869537354e-01 3.3710092306137085e-01</leafValues></_>
        <_>
          <internalNodes>
            0 -1 182 -2.7602696791291237e-03</internalNodes>
          <leafValues>
            -8.7867265939712524e-01 1.7669150233268738e-01</leafValues></_>
        <_>
          <internalNodes>
            0 -1 171 -4.3653757311403751e-03</internalNodes>
          <leafValues>
            6.2546968460083008e-01 -3.0008572340011597e-01</leafValues></_>
        <_>
          <internalNodes>
            0 -1 194 2.7608056552708149e-03</internalNodes>
          <leafValues>
            2.6670303940773010e-01 -7.2048258781433105e-01</leafValues></_>
        <_>
          <internalNodes>
            0 -1 149 4.2080834507942200e-02</internalNodes>
          <leafValues>
            -2.7129757404327393e-01 7.6920586824417114e-01</leafValues></_>
        <_>
          <internalNodes>
            0 -1 236 1.7524938812130131e-05</internalNodes>
          <leafValues>
            3.5800316929817200e-01 -5.7187187671661377e-01</leafValues></_></weakClassifiers></_>
    <!-- stage 4 -->
    <_>
      <maxWeakCount>12</maxWeakCount>
      <stageThreshold>-1.3712172508239746e+00</stageThreshold>
      <weakClassifiers>
        <_>
          <internalNodes>
            0 -1 26 4.7141490504145622e-03</internalNodes>
          <leafValues>
            -3.7120622396469116e-01 6.6713285446166992e-01</leafValues></_>
        <_>
          <internalNodes>
            0 -1 269 -2.8433038387447596e-03</internalNodes>
          <leafValues>
            7.4748402833938599e-01 -3.1552535295486450e-01</leafValues></_>
        <_>
          <internalNodes>
            0 -1 84 -3.6415869835764170e-03</internalNodes>
          <leafValues>
            3.6130234599113464e-01 -6.5540146827697754e-01</leafValues></_>
        <_>
          <internalNodes>
            0 -1 53 4.3679075315594673e-03</internalNodes>
          <leafValues>
            -4.0416848659515381e-01 4.9744719266891479e-01</leafValues></_>
        <_>
          <internalNodes>
            0 -1 239 -6.7211792338639498e-04</internalNodes>
          <leafValues>
            3.8362726569175720e-01 -4.7471660375595093e-01</leafValues></_>
        <_>
          <internalNodes>
            0 -1 66 1.7007533460855484e-02</internalNodes>
          <leafValues>
            -2.6322233676910400e-01 6.9156914949417114e-01</leafValues></_>
        <_>
          <internalNodes>
            0 -1 278 1.5963127836585045e-02</internalNodes>
          <leafValues>
            -2.3834146559238434e-01 7.1096754074096680e-01</leafValues></_>
        <_>
          <internalNodes>
            0 -1 283 -3.8205222226679325e-03</internalNodes>
          <leafValues>
            7.5720012187957764e-01 -1.9256301224231720e-01</leafValues></_>
        <_>
          <internalNodes>
            0 -1 133 2.3049776700645452e-06</internalNodes>
          <leafValues>
            -3.9721351861953735e-01 4.4549143314361572e-01</leafValues></_>
        <_>
          <internalNodes>
            0 -1 268 4.0764845907688141e-03</internalNodes>
          <leafValues>
            -2.8024926781654358e-01 6.7579036951065063e-01</leafValues></_>
        <_>
          <internalNodes>
            0 -1 186 -1.0058891348307952e-04</internalNodes>
          <leafValues>
            3.0951195955276489e-01 -6.4869385957717896e-01</leafValues></_>
        <_>
          <internalNodes>
            0 -1 188 -1.3176398351788521e-04</internalNodes>
          <leafValues>
            -7.7523010969161987e-01 2.1082967519760132e-01</leafValues></_></weakClassifiers></_>
    <!-- stage 5 -->
    <_>
      <maxWeakCount>11</maxWeakCount>
      <stageThreshold>-1.1182638406753540e+00</stageThreshold>
      <weakClassifiers>
        <_>
          <internalNodes>
            0 -1 271 1.6442131251096725e-02</internalNodes>
          <leafValues>
            -2.4438573420047760e-01 7.6131689548492432e-01</leafValues></_>
        <_>
          <internalNodes>
            0 -1 41 2.6069192681461573e-03</internalNodes>
          <leafValues>
            -2.5351333618164063e-01 6.5114587545394897e-01</leafValues></_>
        <_>
          <internalNodes>
            0 -1 7 3.0872079730033875e-01</internalNodes>
          <leafValues>
            -2.9349341988563538e-01 6.0495501756668091e-01</leafValues></_>
        <_>
          <internalNodes>
            0 -1 207 4.8662404878996313e-05</internalNodes>
          <leafValues>
            2.2142551839351654e-01 -7.7708113193511963e-01</leafValues></_>
        <_>
          <internalNodes>
            0 -1 226 1.4185834443196654e-03</internalNodes>
          <leafValues>
            -6.5504968166351318e-01 2.7511751651763916e-01</leafValues></_>
        <_>
          <internalNodes>
            0 -1 252 -6.9639377761632204e-04</internalNodes>
          <leafValues>
            1.8495908379554749e-01 -7.2039049863815308e-01</leafValues></_>
        <_>
          <internalNodes>
            0 -1 25 2.1635644137859344e-02</internalNodes>
          <leafValues>
            -2.1360173821449280e-01 7.5138038396835327e-01</leafValues></_>
        <_>
          <internalNodes>
            0 -1 208 7.3728742790990509e-06</internalNodes>
          <leafValues>
            2.3917371034622192e-01 -6.7958068847656250e-01</leafValues></_>
        <_>
          <internalNodes>
            0 -1 73 1.0942164808511734e-02</internalNodes>
          <leafValues>
            -3.1322154402732849e-01 5.3081649541854858e-01</leafValues></_>
        <_>
          <internalNodes>
            0 -1 280 -1.5149015001952648e-02</internalNodes>
          <leafValues>
            4.3218749761581421e-01 -3.8125032186508179e-01</leafValues></_>
        <_>
          <internalNodes>
            0 -1 121 1.4995427802205086e-02</internalNodes>
          <leafValues>
            -1.8500490486621857e-01 7.9623866081237793e-01</leafValues></_></weakClassifiers></_>
    <!-- stage 6 -->
    <_>
      <maxWeakCount>11</maxWeakCount>
      <stageThreshold>-1.0461565256118774e+00</stageThreshold>
      <weakClassifiers>
        <_>
          <internalNodes>
            0 -1 92 -4.6970846597105265e-04</internalNodes>
          <leafValues>
            2.8898426890373230e-01 -6.7109632492065430e-01</leafValues></_>
        <_>
          <internalNodes>
            0 -1 266 9.7947139292955399e-03</internalNodes>
          <leafValues>
            -2.6593989133834839e-01 7.1778702735900879e-01</leafValues></_>
        <_>
          <internalNodes>
            0 -1 23 8.2770120352506638e-03</internalNodes>
          <leafValues>
            -3.5015475749969482e-01 4.4975185394287109e-01</leafValues></_>
        <_>
          <internalNodes>
            0 -1 125 5.8355452492833138e-03</internalNodes>
          <leafValues>
            -2.5993770360946655e-01 6.3311916589736938e-01</leafValues></_>
        <_>
          <internalNodes>
            0 -1 96 1.7497051507234573e-02</internalNodes>
          <leafValues>
            -1.8797013163566589e-01 6.6902267932891846e-01</leafValues></_>
        <_>
          <internalNodes>
            0 -1 209 -2.5794401764869690e-02</internalNodes>
          <leafValues>
            3.9254742860794067e-01 -3.7897053360939026e-01</leafValues></_>
        <_>
          <internalNodes>
            0 -1 145 -7.8607108443975449e-03</internalNodes>
          <leafValues>
            1.9388240575790405e-01 -7.3758649826049805e-01</leafValues></_>
        <_>
          <internalNodes>
            0 -1 49 -8.2857660949230194e-02</internalNodes>
          <leafValues>
            -8.7679642438888550e-01 1.6171304881572723e-01</leafValues></_>
        <_>
          <internalNodes>
            0 -1 282 7.4566658586263657e-03</internalNodes>
          <leafValues>
            -2.3509757220745087e-01 7.2407490015029907e-01</leafValues></_>
        <_>
          <internalNodes>
            0 -1 144 4.3120989575982094e-03</internalNodes>
          <leafValues>
            2.0583666861057281e-01 -8.1289738416671753e-01</leafValues></_>
        <_>
          <internalNodes>
            0 -1 155 -6.2981429509818554e-03</internalNodes>
          <leafValues>
            -8.6895209550857544e-01 1.3180163502693176e-01</leafValues></_></weakClassifiers></_>
    <!-- stage 7 -->
    <_>
      <maxWeakCount>14</maxWeakCount>
      <stageThreshold>-1.3702402114868164e+00</stageThreshold>
      <weakClassifiers>
        <_>
          <internalNodes>
            0 -1 13 3.8323238492012024e-02</internalNodes>
          <leafValues>
            -4.9688667058944702e-01 3.3333334326744080e-01</leafValues></_>
        <_>
          <internalNodes>
            0 -1 231 2.8747040778398514e-02</internalNodes>
          <leafValues>
            -5.0481426715850830e-01 3.1166404485702515e-01</leafValues></_>
        <_>
          <internalNodes>
            0 -1 219 1.2399046681821346e-03</internalNodes>
          <leafValues>
            -4.9315300583839417e-01 3.3681729435920715e-01</leafValues></_>
        <_>
          <internalNodes>
            0 -1 43 2.0192136988043785e-02</internalNodes>
          <leafValues>
            -2.4373760819435120e-01 5.8288753032684326e-01</leafValues></_>
        <_>
          <internalNodes>
            0 -1 119 2.0161860447842628e-06</internalNodes>
          <leafValues>
            -4.5343872904777527e-01 3.0589103698730469e-01</leafValues></_>
        <_>
          <internalNodes>
            0 -1 31 -5.8164526708424091e-03</internalNodes>
          <leafValues>
            5.1140451431274414e-01 -2.8638574481010437e-01</leafValues></_>
        <_>
          <internalNodes>
            0 -1 169 6.2867387896403670e-04</internalNodes>
          <leafValues>
            -3.3578541874885559e-01 4.0572845935821533e-01</leafValues></_>
        <_>
          <internalNodes>
            0 -1 240 -2.7684436645358801e-04</internalNodes>
          <leafValues>
            2.4687914550304413e-01 -5.7767158746719360e-01</leafValues></_>
        <_>
          <internalNodes>
            0 -1 14 1.8155243247747421e-02</internalNodes>
          <leafValues>
            -2.4756753444671631e-01 6.4711499214172363e-01</leafValues></_>
        <_>
          <internalNodes>
            0 -1 214 -7.6621654443442822e-05</internalNodes>
          <leafValues>
            -7.1399766206741333e-01 1.8788020312786102e-01</leafValues></_>
        <_>
          <internalNodes>
            0 -1 270 5.7317283935844898e-03</internalNodes>
          <leafValues>
            -2.8772097826004028e-01 5.3863805532455444e-01</leafValues></_>
        <_>
          <internalNodes>
            0 -1 217 4.6781476703472435e-04</internalNodes>
          <leafValues>
            -3.3314329385757446e-01 4.4079437851905823e-01</leafValues></_>
        <_>
          <internalNodes>
            0 -1 163 2.3388574845739640e-05</internalNodes>
          <leafValues>
            2.8335025906562805e-01 -5.5613642930984497e-01</leafValues></_>
        <_>
          <internalNodes>
            0 -1 165 1.9739598501473665e-03</internalNodes>
          <leafValues>
            1.8835569918155670e-01 -6.4065778255462646e-01</leafValues></_></weakClassifiers></_>
    <!-- stage 8 -->
    <_>
      <maxWeakCount>15</maxWeakCount>
      <stageThreshold>-1.4007204771041870e+00</stageThreshold>
      <weakClassifiers>
        <_>
          <internalNodes>
            0 -1 76 -6.7671136930584908e-03</internalNodes>
          <leafValues>
            2.8483921289443970e-01 -5.3602308034896851e-01</leafValues></_>
        <_>
          <internalNodes>
            0 -1 27 1.6436441801488400e-03</internalNodes>
          <leafValues>
            -2.4256104230880737e-01 6.0678803920745850e-01</leafValues></_>
        <_>
          <internalNodes>
            0 -1 130 -4.0279212407767773e-03</internalNodes>
          <leafValues>
            2.8807523846626282e-01 -4.6722048521041870e-01</leafValues></_>
        <_>
          <internalNodes>
            0 -1 191 -1.4209958317223936e-04</internalNodes>
          <leafValues>
            -7.4579322338104248e-01 2.3509119451045990e-01</leafValues></_>
        <_>
          <internalNodes>
            0 -1 183 2.2369870293914573e-06</internalNodes>
          <leafValues>
            -5.3796929121017456e-01 2.3213532567024231e-01</leafValues></_>
        <_>
          <internalNodes>
            0 -1 262 9.0301688760519028e-03</internalNodes>
          <leafValues>
            -3.1339174509048462e-01 4.9476373195648193e-01</leafValues></_>
        <_>
          <internalNodes>
            0 -1 122 -3.3137330319732428e-05</internalNodes>
          <leafValues>
            -6.3427740335464478e-01 2.3032785952091217e-01</leafValues></_>
        <_>
          <internalNodes>
            0 -1 16 4.8583172261714935e-02</internalNodes>
          <leafValues>
            -2.9973298311233521e-01 4.2201694846153259e-01</leafValues></_>
        <_>
          <internalNodes>
            0 -1 225 3.6220513284206390e-03</internalNodes>
          <leafValues>
            -6.3860863447189331e-01 2.0609733462333679e-01</leafValues></_>
        <_>
          <internalNodes>
            0 -1 210 -8.9648086577653885e-03</internalNodes>
          <leafValues>
            6.2696588039398193e-01 -2.2066561877727509e-01</leafValues></_>
        <_>
          <internalNodes>
            0 -1 159 4.5612253248691559e-02</internalNodes>
          <leafValues>
            -1.5952962636947632e-01 7.2992688417434692e-01</leafValues></_>
        <_>
          <internalNodes>
            0 -1 95 6.5423949854448438e-04</internalNodes>
          <leafValues>
            -3.0329105257987976e-01 3.9774531126022339e-01</leafValues></_>
        <_>
          <internalNodes>
            0 -1 206 7.1178597863763571e-04</internalNodes>
          <leafValues>
            -3.5962226986885071e-01 3.5884580016136169e-01</leafValues></_>
        <_>
          <internalNodes>
            0 -1 178 9.6443598158657551e-04</internalNodes>
          <leafValues>
            -3.9986512064933777e-01 3.4860044717788696e-01</leafValues></_>
        <_>
          <internalNodes>
            0 -1 79 -9.9960565567016602e-03</internalNodes>
          <leafValues>
            -6.4706748723983765e-01 2.4223504960536957e-01</leafValues></_></weakClassifiers></_>
    <!-- stage 9 -->
    <_>
      <maxWeakCount>19</maxWeakCount>
      <stageThreshold>-1.4305487871170044e+00</stageThreshold>
      <weakClassifiers>
        <_>
          <internalNodes>
            0 -1 256 2.0616000256268308e-05</internalNodes>
          <leafValues>
            2.0289854705333710e-01 -6.3900417089462280e-01</leafValues></_>
        <_>
          <internalNodes>
            0 -1 272 1.9162144511938095e-02</internalNodes>
          <leafValues>
            -1.9820994138717651e-01 6.7533320188522339e-01</leafValues></_>
        <_>
          <internalNodes>
            0 -1 33 1.4750899281352758e-03</internalNodes>
          <leafValues>
            -1.7946663498878479e-01 6.3605523109436035e-01</leafValues></_>
        <_>
          <internalNodes>
            0 -1 203 -2.2126491785456892e-06</internalNodes>
          <leafValues>
            2.4842101335525513e-01 -5.4211318492889404e-01</leafValues></_>
        <_>
          <internalNodes>
            0 -1 83 1.3283224776387215e-02</internalNodes>
          <leafValues>
            -2.1580946445465088e-01 5.7639437913894653e-01</leafValues></_>
        <_>
          <internalNodes>
            0 -1 259 6.1748316511511803e-03</internalNodes>
          <leafValues>
            -3.0180501937866211e-01 3.8541764020919800e-01</leafValues></_>
        <_>
          <internalNodes>
            0 -1 181 -3.8910884177312255e-04</internalNodes>
          <leafValues>
            -6.3853436708450317e-01 2.0304785668849945e-01</leafValues></_>
        <_>
          <internalNodes>
            0 -1 129 -9.4682932831346989e-04</internalNodes>
          <leafValues>
            2.3028548061847687e-01 -5.2514266967773438e-01</leafValues></_>
        <_>
          <internalNodes>
            0 -1 89 6.6831908188760281e-03</internalNodes>
          <leafValues>
            -2.3416316509246826e-01 5.6596511602401733e-01</leafValues></_>
        <_>
          <internalNodes>
            0 -1 3 1.3680656254291534e-01</internalNodes>
          <leafValues>
            -2.7868607640266418e-01 4.3771931529045105e-01</leafValues></_>
        <_>
          <internalNodes>
            0 -1 166 -7.7091872692108154e-02</internalNodes>
          <leafValues>
            6.6376322507858276e-01 -2.2411757707595825e-01</leafValues></_>
        <_>
          <internalNodes>
            0 -1 140 -2.4643581127747893e-05</internalNodes>
          <leafValues>
            -5.1642107963562012e-01 2.3482421040534973e-01</leafValues></_>
        <_>
          <internalNodes>
            0 -1 160 -5.1578208804130554e-03</internalNodes>
          <leafValues>
            4.9632093310356140e-01 -2.0730122923851013e-01</leafValues></_>
        <_>
          <internalNodes>
            0 -1 9 2.2466193884611130e-02</internalNodes>
          <leafValues>
            -3.3462518453598022e-01 3.6213177442550659e-01</leafValues></_>
        <_>
          <internalNodes>
            0 -1 136 3.6204743082635105e-05</internalNodes>
          <leafValues>
            2.1631160378456116e-01 -5.7477056980133057e-01</leafValues></_>
        <_>
          <internalNodes>
            0 -1 179 8.8007538579404354e-04</internalNodes>
          <leafValues>
            -3.5778072476387024e-01 3.1836453080177307e-01</leafValues></_>
        <_>
          <internalNodes>
            0 -1 220 3.7967911339364946e-04</internalNodes>
          <leafValues>
            -4.4304883480072021e-01 3.0741068720817566e-01</leafValues></_>
        <_>
          <internalNodes>
            0 -1 162 -2.1672965885954909e-05</internalNodes>
          <leafValues>
            -6.0698902606964111e-01 2.2393146157264709e-01</leafValues></_>
        <_>
          <internalNodes>
            0 -1 107 -4.0408740460406989e-06</internalNodes>
          <leafValues>
            2.4659623205661774e-01 -4.9290692806243896e-01</leafValues></_></weakClassifiers></_>
    <!-- stage 10 -->
    <_>
      <maxWeakCount>15</maxWeakCount>
      <stageThreshold>-1.2664314508438110e+00</stageThreshold>
      <weakClassifiers>
        <_>
          <internalNodes>
            0 -1 20 9.9506545811891556e-03</internalNodes>
          <leafValues>
            -5.4019290208816528e-01 2.4383163452148438e-01</leafValues></_>
        <_>
          <internalNodes>
            0 -1 15 2.2928837686777115e-02</internalNodes>
          <leafValues>
            -2.0703656971454620e-01 6.2187373638153076e-01</leafValues></_>
        <_>
          <internalNodes>
            0 -1 238 2.8061855118721724e-05</internalNodes>
          <leafValues>
            2.3228976130485535e-01 -5.0285285711288452e-01</leafValues></_>
        <_>
          <internalNodes>
            0 -1 274 3.0657420866191387e-03</internalNodes>
          <leafValues>
            -2.0202286541461945e-01 5.7662397623062134e-01</leafValues></_>
        <_>
          <internalNodes>
            0 -1 244 -1.1356335598975420e-03</internalNodes>
          <leafValues>
            2.3644556105136871e-01 -4.6767309308052063e-01</leafValues></_>
        <_>
          <internalNodes>
            0 -1 174 2.8023268096148968e-03</internalNodes>
          <leafValues>
            1.3542380928993225e-01 -7.8386598825454712e-01</leafValues></_>
        <_>
          <internalNodes>
            0 -1 221 -1.3648997992277145e-03</internalNodes>
          <leafValues>
            4.5277008414268494e-01 -2.8307399153709412e-01</leafValues></_>
        <_>
          <internalNodes>
            0 -1 115 -1.0058630723506212e-03</internalNodes>
          <leafValues>
            2.6161476969718933e-01 -5.2853077650070190e-01</leafValues></_>
        <_>
          <internalNodes>
            0 -1 117 -2.8475834988057613e-03</internalNodes>
          <leafValues>
            -4.4701981544494629e-01 3.2808145880699158e-01</leafValues></_>
        <_>
          <internalNodes>
            0 -1 42 1.3078069314360619e-03</internalNodes>
          <leafValues>
            -2.4602898955345154e-01 4.9116173386573792e-01</leafValues></_>
        <_>
          <internalNodes>
            0 -1 70 -1.0639980901032686e-03</internalNodes>
          <leafValues>
            6.4011013507843018e-01 -2.3964551091194153e-01</leafValues></_>
        <_>
          <internalNodes>
            0 -1 65 -4.1086153942160308e-05</internalNodes>
          <leafValues>
            2.9659765958786011e-01 -4.2076742649078369e-01</leafValues></_>
        <_>
          <internalNodes>
            0 -1 190 5.4778669436927885e-05</internalNodes>
          <leafValues>
            2.1612678468227386e-01 -4.7171124815940857e-01</leafValues></_>
        <_>
          <internalNodes>
            0 -1 286 7.3678223416209221e-03</internalNodes>
          <leafValues>
            -1.6500487923622131e-01 7.2629374265670776e-01</leafValues></_>
        <_>
          <internalNodes>
            0 -1 85 -4.3595761060714722e-02</internalNodes>
          <leafValues>
            6.0842996835708618e-01 -1.9632011651992798e-01</leafValues></_></weakClassifiers></_>
    <!-- stage 11 -->
    <_>
      <maxWeakCount>14</maxWeakCount>
      <stageThreshold>-1.3652547597885132e+00</stageThreshold>
      <weakClassifiers>
        <_>
          <internalNodes>
            0 -1 279 1.0906028561294079e-02</internalNodes>
          <leafValues>
            -1.9201031327247620e-01 6.6517859697341919e-01</leafValues></_>
        <_>
          <internalNodes>
            0 -1 230 1.1146895121783018e-03</internalNodes>
          <leafValues>
            -7.6679807901382446e-01 1.7149484157562256e-01</leafValues></_>
        <_>
          <internalNodes>
            0 -1 213 1.0245152749121189e-02</internalNodes>
          <leafValues>
            1.1514587700366974e-01 -8.2932907342910767e-01</leafValues></_>
        <_>
          <internalNodes>
            0 -1 4 -1.2884546071290970e-02</internalNodes>
          <leafValues>
            -6.8769156932830811e-01 1.5236523747444153e-01</leafValues></_>
        <_>
          <internalNodes>
            0 -1 197 -6.9632536906283349e-05</internalNodes>
          <leafValues>
            -6.3069558143615723e-01 1.6332358121871948e-01</leafValues></_>
        <_>
          <internalNodes>
            0 -1 172 -5.6276287068612874e-05</internalNodes>
          <leafValues>
            -5.4099088907241821e-01 2.0814648270606995e-01</leafValues></_>
        <_>
          <internalNodes>
            0 -1 276 -2.2767921909689903e-03</internalNodes>
          <leafValues>
            5.9635847806930542e-01 -2.1049509942531586e-01</leafValues></_>
        <_>
          <internalNodes>
            0 -1 137 9.2089176177978516e-04</internalNodes>
          <leafValues>
            -2.3394136130809784e-01 4.6267852187156677e-01</leafValues></_>
        <_>
          <internalNodes>
            0 -1 185 -2.8650498279603198e-05</internalNodes>
          <leafValues>
            -6.2470531463623047e-01 1.6012765467166901e-01</leafValues></_>
        <_>
          <internalNodes>
            0 -1 101 -3.6230622790753841e-03</internalNodes>
          <leafValues>
            2.9135677218437195e-01 -4.4616773724555969e-01</leafValues></_>
        <_>
          <internalNodes>
            0 -1 103 2.5444135189900408e-06</internalNodes>
          <leafValues>
            -4.6255996823310852e-01 2.5988835096359253e-01</leafValues></_>
        <_>
          <internalNodes>
            0 -1 167 -8.9995650341734290e-05</internalNodes>
          <leafValues>
            -7.2764253616333008e-01 1.2031693756580353e-01</leafValues></_>
        <_>
          <internalNodes>
            0 -1 164 -1.7678423319011927e-05</internalNodes>
          <leafValues>
            -5.6939667463302612e-01 2.0767442882061005e-01</leafValues></_>
        <_>
          <internalNodes>
            0 -1 287 -1.9722776487469673e-03</internalNodes>
          <leafValues>
            5.7974010705947876e-01 -2.1422117948532104e-01</leafValues></_></weakClassifiers></_>
    <!-- stage 12 -->
    <_>
      <maxWeakCount>18</maxWeakCount>
      <stageThreshold>-1.4337533712387085e+00</stageThreshold>
      <weakClassifiers>
        <_>
          <internalNodes>
            0 -1 62 1.3083323836326599e-02</internalNodes>
          <leafValues>
            -2.6331362128257751e-01 5.4938268661499023e-01</leafValues></_>
        <_>
          <internalNodes>
            0 -1 82 1.6747850924730301e-02</internalNodes>
          <leafValues>
            -1.9107651710510254e-01 5.8690899610519409e-01</leafValues></_>
        <_>
          <internalNodes>
            0 -1 67 1.1619625613093376e-02</internalNodes>
          <leafValues>
            -2.2657230496406555e-01 6.4469999074935913e-01</leafValues></_>
        <_>
          <internalNodes>
            0 -1 99 1.1850070222862996e-05</internalNodes>
          <leafValues>
            2.6899257302284241e-01 -5.0438207387924194e-01</leafValues></_>
        <_>
          <internalNodes>
            0 -1 104 -1.0204132559010759e-04</internalNodes>
          <leafValues>
            -5.4528635740280151e-01 2.1487087011337280e-01</leafValues></_>
        <_>
          <internalNodes>
            0 -1 229 1.8680493667488918e-06</internalNodes>
          <leafValues>
            -3.7918069958686829e-01 2.8323715925216675e-01</leafValues></_>
        <_>
          <internalNodes>
            0 -1 138 -2.1852222271263599e-03</internalNodes>
          <leafValues>
            6.9615882635116577e-01 -1.7742647230625153e-01</leafValues></_>
        <_>
          <internalNodes>
            0 -1 177 5.1727314712479711e-04</internalNodes>
          <leafValues>
            -4.0743565559387207e-01 2.7216407656669617e-01</leafValues></_>
        <_>
          <internalNodes>
            0 -1 142 7.4551298894220963e-06</internalNodes>
          <leafValues>
            2.2666111588478088e-01 -4.6757298707962036e-01</leafValues></_>
        <_>
          <internalNodes>
            0 -1 90 -2.5387493893504143e-02</internalNodes>
          <leafValues>
            3.7397345900535583e-01 -2.9846066236495972e-01</leafValues></_>
        <_>
          <internalNodes>
            0 -1 275 1.0033177677541971e-03</internalNodes>
          <leafValues>
            -2.6461240649223328e-01 4.3550050258636475e-01</leafValues></_>
        <_>
          <internalNodes>
            0 -1 98 -2.6988649551640265e-05</internalNodes>
          <leafValues>
            -5.3624343872070313e-01 2.0043863356113434e-01</leafValues></_>
        <_>
          <internalNodes>
            0 -1 215 3.3545508631505072e-04</internalNodes>
          <leafValues>
            -3.7198448181152344e-01 3.2955020666122437e-01</leafValues></_>
        <_>
          <internalNodes>
            0 -1 131 3.2444331736769527e-05</internalNodes>
          <leafValues>
            -3.8620597124099731e-01 3.1715840101242065e-01</leafValues></_>
        <_>
          <internalNodes>
            0 -1 211 -4.2982222512364388e-03</internalNodes>
          <leafValues>
            4.1601076722145081e-01 -2.7608448266983032e-01</leafValues></_>
        <_>
          <internalNodes>
            0 -1 51 1.2572545092552900e-03</internalNodes>
          <leafValues>
            -1.6542625427246094e-01 6.7645233869552612e-01</leafValues></_>
        <_>
          <internalNodes>
            0 -1 223 1.3386704958975315e-03</internalNodes>
          <leafValues>
            -5.3673905134201050e-01 2.2252631187438965e-01</leafValues></_>
        <_>
          <internalNodes>
            0 -1 224 -2.8555976314237341e-05</internalNodes>
          <leafValues>
            -6.3526880741119385e-01 1.9004723429679871e-01</leafValues></_></weakClassifiers></_>
    <!-- stage 13 -->
    <_>
      <maxWeakCount>16</maxWeakCount>
      <stageThreshold>-1.3384549617767334e+00</stageThreshold>
      <weakClassifiers>
        <_>
          <internalNodes>
            0 -1 56 1.3995591551065445e-02</internalNodes>
          <leafValues>
            -2.4846625328063965e-01 4.6551725268363953e-01</leafValues></_>
        <_>
          <internalNodes>
            0 -1 10 1.5887629985809326e-01</internalNodes>
          <leafValues>
            -2.0335705578327179e-01 5.6932294368743896e-01</leafValues></_>
        <_>
          <internalNodes>
            0 -1 253 1.1649399530142546e-03</internalNodes>
          <leafValues>
            -4.7073215246200562e-01 2.4859765172004700e-01</leafValues></_>
        <_>
          <internalNodes>
            0 -1 59 -3.1281472183763981e-04</internalNodes>
          <leafValues>
            2.5791794061660767e-01 -4.0292966365814209e-01</leafValues></_>
        <_>
          <internalNodes>
            0 -1 21 1.4931477606296539e-02</internalNodes>
          <leafValues>
            -3.7527304887771606e-01 2.8723061084747314e-01</leafValues></_>
        <_>
          <internalNodes>
            0 -1 87 9.8281335085630417e-03</internalNodes>
          <leafValues>
            -1.8650709092617035e-01 7.2277122735977173e-01</leafValues></_>
        <_>
          <internalNodes>
            0 -1 153 -1.3059736229479313e-02</internalNodes>
          <leafValues>
            -7.3837828636169434e-01 1.9746588170528412e-01</leafValues></_>
        <_>
          <internalNodes>
            0 -1 40 -8.0220995005220175e-04</internalNodes>
          <leafValues>
            5.9327346086502075e-01 -2.1147379279136658e-01</leafValues></_>
        <_>
          <internalNodes>
            0 -1 200 2.3161662738857558e-06</internalNodes>
          <leafValues>
            -4.0256267786026001e-01 2.7641147375106812e-01</leafValues></_>
        <_>
          <internalNodes>
            0 -1 106 -4.5113491069059819e-05</internalNodes>
          <leafValues>
            -4.3112128973007202e-01 2.6733258366584778e-01</leafValues></_>
        <_>
          <internalNodes>
            0 -1 61 2.4088296413538046e-05</internalNodes>
          <leafValues>
            1.5941138565540314e-01 -5.4951095581054688e-01</leafValues></_>
        <_>
          <internalNodes>
            0 -1 235 -1.4468832523562014e-04</internalNodes>
          <leafValues>
            -5.0487428903579712e-01 1.9557312130928040e-01</leafValues></_>
        <_>
          <internalNodes>
            0 -1 154 6.7529782652854919e-02</internalNodes>
          <leafValues>
            8.0246947705745697e-02 -9.3649637699127197e-01</leafValues></_>
        <_>
          <internalNodes>
            0 -1 180 -9.8197968327440321e-05</internalNodes>
          <leafValues>
            1.6581310331821442e-01 -5.3725427389144897e-01</leafValues></_>
        <_>
          <internalNodes>
            0 -1 114 1.1703175259754062e-03</internalNodes>
          <leafValues>
            -2.6474338769912720e-01 4.4600918889045715e-01</leafValues></_>
        <_>
          <internalNodes>
            0 -1 202 -2.2317674010992050e-03</internalNodes>
          <leafValues>
            4.5122542977333069e-01 -2.8468188643455505e-01</leafValues></_></weakClassifiers></_>
    <!-- stage 14 -->
    <_>
      <maxWeakCount>17</maxWeakCount>
      <stageThreshold>-1.1318598985671997e+00</stageThreshold>
      <weakClassifiers>
        <_>
          <internalNodes>
            0 -1 212 4.6934481710195541e-02</internalNodes>
          <leafValues>
            -3.5330578684806824e-01 3.3139535784721375e-01</leafValues></_>
        <_>
          <internalNodes>
            0 -1 46 -1.1120713315904140e-03</internalNodes>
          <leafValues>
            3.1821268796920776e-01 -3.7184774875640869e-01</leafValues></_>
        <_>
          <internalNodes>
            0 -1 118 -2.0772497464349726e-06</internalNodes>
          <leafValues>
            2.2484593093395233e-01 -5.0663912296295166e-01</leafValues></_>
        <_>
          <internalNodes>
            0 -1 34 1.2952868128195405e-03</internalNodes>
          <leafValues>
            -2.0774960517883301e-01 5.4263329505920410e-01</leafValues></_>
        <_>
          <internalNodes>
            0 -1 108 -1.8319218497708789e-06</internalNodes>
          <leafValues>
            2.6667401194572449e-01 -3.7787339091300964e-01</leafValues></_>
        <_>
          <internalNodes>
            0 -1 257 2.1921227016719058e-05</internalNodes>
          <leafValues>
            2.0839957892894745e-01 -6.1605876684188843e-01</leafValues></_>
        <_>
          <internalNodes>
            0 -1 189 -3.1940342159941792e-04</internalNodes>
          <leafValues>
            4.8787534236907959e-01 -2.3234924674034119e-01</leafValues></_>
        <_>
          <internalNodes>
            0 -1 233 -6.0061877593398094e-04</internalNodes>
          <leafValues>
            2.0869553089141846e-01 -4.7690489888191223e-01</leafValues></_>
        <_>
          <internalNodes>
            0 -1 184 2.5336486287415028e-03</internalNodes>
          <leafValues>
            1.7559483647346497e-01 -6.3229018449783325e-01</leafValues></_>
        <_>
          <internalNodes>
            0 -1 258 6.1383903957903385e-03</internalNodes>
          <leafValues>
            -2.1931736171245575e-01 4.5953947305679321e-01</leafValues></_>
        <_>
          <internalNodes>
            0 -1 143 6.1388919129967690e-04</internalNodes>
          <leafValues>
            -2.9683476686477661e-01 3.5177257657051086e-01</leafValues></_>
        <_>
          <internalNodes>
            0 -1 69 2.8772159566869959e-05</internalNodes>
          <leafValues>
            1.7596831917762756e-01 -5.5532431602478027e-01</leafValues></_>
        <_>
          <internalNodes>
            0 -1 32 1.5988878905773163e-02</internalNodes>
          <leafValues>
            -1.7697857320308685e-01 5.0081121921539307e-01</leafValues></_>
        <_>
          <internalNodes>
            0 -1 134 1.8947191620100057e-06</internalNodes>
          <leafValues>
            -3.4112942218780518e-01 2.8539690375328064e-01</leafValues></_>
        <_>
          <internalNodes>
            0 -1 77 -1.2845676392316818e-03</internalNodes>
          <leafValues>
            6.7443704605102539e-01 -1.4967945218086243e-01</leafValues></_>
        <_>
          <internalNodes>
            0 -1 116 9.9206471350044012e-04</internalNodes>
          <leafValues>
            -2.2377486526966095e-01 4.0116402506828308e-01</leafValues></_>
        <_>
          <internalNodes>
            0 -1 152 3.1693805940449238e-03</internalNodes>
          <leafValues>
            -1.9571010768413544e-01 5.6620824337005615e-01</leafValues></_></weakClassifiers></_>
    <!-- stage 15 -->
    <_>
      <maxWeakCount>20</maxWeakCount>
      <stageThreshold>-1.4707967042922974e+00</stageThreshold>
      <weakClassifiers>
        <_>
          <internalNodes>
            0 -1 234 1.9074346870183945e-02</internalNodes>
          <leafValues>
            -1.6239316761493683e-01 7.3480665683746338e-01</leafValues></_>
        <_>
          <internalNodes>
            0 -1 161 -1.9332721829414368e-02</internalNodes>
          <leafValues>
            6.8010783195495605e-01 -1.2097564339637756e-01</leafValues></_>
        <_>
          <internalNodes>
            0 -1 173 1.1300121514068451e-05</internalNodes>
          <leafValues>
            2.4408650398254395e-01 -3.8660576939582825e-01</leafValues></_>
        <_>
          <internalNodes>
            0 -1 170 4.6164769446477294e-04</internalNodes>
          <leafValues>
            -3.2729217410087585e-01 2.8542679548263550e-01</leafValues></_>
        <_>
          <internalNodes>
            0 -1 216 1.6600380185991526e-03</internalNodes>
          <leafValues>
            -4.0997079014778137e-01 2.4667391180992126e-01</leafValues></_>
        <_>
          <internalNodes>
            0 -1 6 1.1650310456752777e-01</internalNodes>
          <leafValues>
            -2.3317946493625641e-01 4.3242919445037842e-01</leafValues></_>
        <_>
          <internalNodes>
            0 -1 284 -8.9235586347058415e-04</internalNodes>
          <leafValues>
            -5.3849393129348755e-01 2.0895469188690186e-01</leafValues></_>
        <_>
          <internalNodes>
            0 -1 248 9.4544643070548773e-04</internalNodes>
          <leafValues>
            -4.8118954896926880e-01 2.0895376801490784e-01</leafValues></_>
        <_>
          <internalNodes>
            0 -1 156 -2.5468914827797562e-05</internalNodes>
          <leafValues>
            -6.2835794687271118e-01 1.1355894804000854e-01</leafValues></_>
        <_>
          <internalNodes>
            0 -1 75 -9.5788462203927338e-05</internalNodes>
          <leafValues>
            3.6585918068885803e-01 -2.6542252302169800e-01</leafValues></_>
        <_>
          <internalNodes>
            0 -1 81 1.7112363129854202e-02</internalNodes>
          <leafValues>
            -2.0531629025936127e-01 4.4776165485382080e-01</leafValues></_>
        <_>
          <internalNodes>
            0 -1 71 -2.8896600269945338e-05</internalNodes>
          <leafValues>
            -4.5312079787254333e-01 2.8196918964385986e-01</leafValues></_>
        <_>
          <internalNodes>
            0 -1 110 7.1296158239420038e-06</internalNodes>
          <leafValues>
            2.5127428770065308e-01 -4.2504644393920898e-01</leafValues></_>
        <_>
          <internalNodes>
            0 -1 249 -5.0730868242681026e-03</internalNodes>
          <leafValues>
            6.1362498998641968e-01 -1.5990050137042999e-01</leafValues></_>
        <_>
          <internalNodes>
            0 -1 94 1.9842389156110585e-04</internalNodes>
          <leafValues>
            1.7927977442741394e-01 -5.4699265956878662e-01</leafValues></_>
        <_>
          <internalNodes>
            0 -1 60 -4.0347669710172340e-05</internalNodes>
          <leafValues>
            2.2688579559326172e-01 -4.2433929443359375e-01</leafValues></_>
        <_>
          <internalNodes>
            0 -1 285 8.6744874715805054e-03</internalNodes>
          <leafValues>
            -1.9480511546134949e-01 5.6188458204269409e-01</leafValues></_>
        <_>
          <internalNodes>
            0 -1 254 -8.0208847066387534e-05</internalNodes>
          <leafValues>
            -4.3988785147666931e-01 2.2531004250049591e-01</leafValues></_>
        <_>
          <internalNodes>
            0 -1 112 -1.0454183071851730e-01</internalNodes>
          <leafValues>
            -8.5196220874786377e-01 1.1482243984937668e-01</leafValues></_>
        <_>
          <internalNodes>
            0 -1 150 2.3443023674190044e-03</internalNodes>
          <leafValues>
            9.9503934383392334e-02 -7.3825675249099731e-01</leafValues></_></weakClassifiers></_>
    <!-- stage 16 -->
    <_>
      <maxWeakCount>19</maxWeakCount>
      <stageThreshold>-1.3831495046615601e+00</stageThreshold>
      <weakClassifiers>
        <_>
          <internalNodes>
            0 -1 261 2.0103614133404335e-06</internalNodes>
          <leafValues>
            -3.6095964908599854e-01 3.0563250184059143e-01</leafValues></_>
        <_>
          <internalNodes>
            0 -1 72 1.0425589978694916e-02</internalNodes>
          <leafValues>
            -2.1804285049438477e-01 5.1070559024810791e-01</leafValues></_>
        <_>
          <internalNodes>
            0 -1 80 9.3014732556184754e-06</internalNodes>
          <leafValues>
            -3.2532942295074463e-01 2.9891940951347351e-01</leafValues></_>
        <_>
          <internalNodes>
            0 -1 52 2.0562063902616501e-02</internalNodes>
          <leafValues>
            -2.3708485066890717e-01 4.5299750566482544e-01</leafValues></_>
        <_>
          <internalNodes>
            0 -1 250 -3.8657506229355931e-04</internalNodes>
          <leafValues>
            1.9784863293170929e-01 -5.7259786128997803e-01</leafValues></_>
        <_>
          <internalNodes>
            0 -1 1 9.4119347631931305e-02</internalNodes>
          <leafValues>
            -3.0118855834007263e-01 3.4545347094535828e-01</leafValues></_>
        <_>
          <internalNodes>
            0 -1 47 -5.5702929385006428e-03</internalNodes>
          <leafValues>
            5.0064724683761597e-01 -2.4032016098499298e-01</leafValues></_>
        <_>
          <internalNodes>
            0 -1 289 3.2529979944229126e-03</internalNodes>
          <leafValues>
            1.7623969912528992e-01 -6.3410174846649170e-01</leafValues></_>
        <_>
          <internalNodes>
            0 -1 281 8.0334651283919811e-04</internalNodes>
          <leafValues>
            -2.5422465801239014e-01 3.7941938638687134e-01</leafValues></_>
        <_>
          <internalNodes>
            0 -1 113 -8.9075241703540087e-04</internalNodes>
          <leafValues>
            1.8550837039947510e-01 -5.6555920839309692e-01</leafValues></_>
        <_>
          <internalNodes>
            0 -1 109 -3.9123155147535726e-05</internalNodes>
          <leafValues>
            -5.2656966447830200e-01 1.8099564313888550e-01</leafValues></_>
        <_>
          <internalNodes>
            0 -1 38 -1.4506971929222345e-03</internalNodes>
          <leafValues>
            3.2244831323623657e-01 -3.0099758505821228e-01</leafValues></_>
        <_>
          <internalNodes>
            0 -1 290 -8.1834685988724232e-04</internalNodes>
          <leafValues>
            -5.1118892431259155e-01 1.8629920482635498e-01</leafValues></_>
        <_>
          <internalNodes>
            0 -1 123 2.0505187421804294e-05</internalNodes>
          <leafValues>
            2.2933335602283478e-01 -4.1315442323684692e-01</leafValues></_>
        <_>
          <internalNodes>
            0 -1 241 2.3260819725692272e-03</internalNodes>
          <leafValues>
            1.1662270128726959e-01 -8.6581796407699585e-01</leafValues></_>
        <_>
          <internalNodes>
            0 -1 102 2.4357791990041733e-02</internalNodes>
          <leafValues>
            -2.0874395966529846e-01 4.9474555253982544e-01</leafValues></_>
        <_>
          <internalNodes>
            0 -1 86 -2.1283724345266819e-03</internalNodes>
          <leafValues>
            3.8372939825057983e-01 -3.1186076998710632e-01</leafValues></_>
        <_>
          <internalNodes>
            0 -1 35 -3.7217563658487052e-05</internalNodes>
          <leafValues>
            -3.3906811475753784e-01 2.9646715521812439e-01</leafValues></_>
        <_>
          <internalNodes>
            0 -1 120 6.5452093258500099e-03</internalNodes>
          <leafValues>
            -2.0292060077190399e-01 5.2387869358062744e-01</leafValues></_></weakClassifiers></_>
    <!-- stage 17 -->
    <_>
      <maxWeakCount>22</maxWeakCount>
      <stageThreshold>-1.4662947654724121e+00</stageThreshold>
      <weakClassifiers>
        <_>
          <internalNodes>
            0 -1 97 -1.2419174890965223e-03</internalNodes>
          <leafValues>
            2.9565218091011047e-01 -4.0000000596046448e-01</leafValues></_>
        <_>
          <internalNodes>
            0 -1 168 9.6026144456118345e-04</internalNodes>
          <leafValues>
            -3.6553147435188293e-01 2.7355343103408813e-01</leafValues></_>
        <_>
          <internalNodes>
            0 -1 277 2.0503276959061623e-02</internalNodes>
          <leafValues>
            -1.9620715081691742e-01 5.4920923709869385e-01</leafValues></_>
        <_>
          <internalNodes>
            0 -1 44 3.0128564685583115e-02</internalNodes>
          <leafValues>
            -3.4813585877418518e-01 3.3946138620376587e-01</leafValues></_>
        <_>
          <internalNodes>
            0 -1 146 1.2842468095186632e-05</internalNodes>
          <leafValues>
            -4.9481347203254700e-01 2.5723332166671753e-01</leafValues></_>
        <_>
          <internalNodes>
            0 -1 105 4.3708587327273563e-06</internalNodes>
          <leafValues>
            -4.3678581714630127e-01 2.5014728307723999e-01</leafValues></_>
        <_>
          <internalNodes>
            0 -1 24 1.5954840928316116e-02</internalNodes>
          <leafValues>
            -3.2611832022666931e-01 3.8909742236137390e-01</leafValues></_>
        <_>
          <internalNodes>
            0 -1 226 1.9133344758301973e-03</internalNodes>
          <leafValues>
            -5.4420393705368042e-01 1.7876152694225311e-01</leafValues></_>
        <_>
          <internalNodes>
            0 -1 141 -2.3142911231843755e-05</internalNodes>
          <leafValues>
            -5.6169539690017700e-01 1.6307693719863892e-01</leafValues></_>
        <_>
          <internalNodes>
            0 -1 28 1.3761211931705475e-01</internalNodes>
          <leafValues>
            1.1597393453121185e-01 -8.5447794198989868e-01</leafValues></_>
        <_>
          <internalNodes>
            0 -1 218 7.5826019747182727e-04</internalNodes>
          <leafValues>
            -3.4912949800491333e-01 2.9323685169219971e-01</leafValues></_>
        <_>
          <internalNodes>
            0 -1 176 -1.1056479066610336e-02</internalNodes>
          <leafValues>
            -8.0922996997833252e-01 1.2534162402153015e-01</leafValues></_>
        <_>
          <internalNodes>
            0 -1 132 4.3972286221105605e-06</internalNodes>
          <leafValues>
            -4.2187473177909851e-01 2.2295796871185303e-01</leafValues></_>
        <_>
          <internalNodes>
            0 -1 57 2.2050668121664785e-05</internalNodes>
          <leafValues>
            2.2623601555824280e-01 -4.1381961107254028e-01</leafValues></_>
        <_>
          <internalNodes>
            0 -1 45 4.6394870150834322e-04</internalNodes>
          <leafValues>
            -1.3068705797195435e-01 7.1226596832275391e-01</leafValues></_>
        <_>
          <internalNodes>
            0 -1 151 -1.3642491539940238e-03</internalNodes>
          <leafValues>
            4.4503059983253479e-01 -2.4176718294620514e-01</leafValues></_>
        <_>
          <internalNodes>
            0 -1 260 3.5389317199587822e-03</internalNodes>
          <leafValues>
            -2.5618851184844971e-01 4.1745236515998840e-01</leafValues></_>
        <_>
          <internalNodes>
            0 -1 135 3.3303680829703808e-03</internalNodes>
          <leafValues>
            -1.9999109208583832e-01 5.4502242803573608e-01</leafValues></_>
        <_>
          <internalNodes>
            0 -1 124 1.9501585047692060e-03</internalNodes>
          <leafValues>
            -1.8879300355911255e-01 5.8450001478195190e-01</leafValues></_>
        <_>
          <internalNodes>
            0 -1 237 -7.4256813604733907e-06</internalNodes>
          <leafValues>
            -3.8906550407409668e-01 2.8919473290443420e-01</leafValues></_>
        <_>
          <internalNodes>
            0 -1 245 4.5907340791018214e-06</internalNodes>
          <leafValues>
            -4.3175947666168213e-01 2.5410857796669006e-01</leafValues></_>
        <_>
          <internalNodes>
            0 -1 265 -3.2395473681390285e-05</internalNodes>
          <leafValues>
            -5.9157115221023560e-01 1.7136049270629883e-01</leafValues></_></weakClassifiers></_>
    <!-- stage 18 -->
    <_>
      <maxWeakCount>19</maxWeakCount>
      <stageThreshold>-1.2534884214401245e+00</stageThreshold>
      <weakClassifiers>
        <_>
          <internalNodes>
            0 -1 228 -1.4518806710839272e-04</internalNodes>
          <leafValues>
            4.9491524696350098e-01 -2.0709219574928284e-01</leafValues></_>
        <_>
          <internalNodes>
            0 -1 247 -9.9714934825897217e-02</internalNodes>
          <leafValues>
            3.4730601310729980e-01 -2.9507559537887573e-01</leafValues></_>
        <_>
          <internalNodes>
            0 -1 88 -7.1541819488629699e-04</internalNodes>
          <leafValues>
            2.4736095964908600e-01 -3.9470869302749634e-01</leafValues></_>
        <_>
          <internalNodes>
            0 -1 169 1.0666898451745510e-03</internalNodes>
          <leafValues>
            -3.8034415245056152e-01 2.5275489687919617e-01</leafValues></_>
        <_>
          <internalNodes>
            0 -1 232 -1.9633078482002020e-03</internalNodes>
          <leafValues>
            5.7825934886932373e-01 -1.7975685000419617e-01</leafValues></_>
        <_>
          <internalNodes>
            0 -1 222 2.0171551113890018e-06</internalNodes>
          <leafValues>
            -4.8428797721862793e-01 2.2884932160377502e-01</leafValues></_>
        <_>
          <internalNodes>
            0 -1 63 -3.3822999102994800e-04</internalNodes>
          <leafValues>
            2.3526681959629059e-01 -4.9048694968223572e-01</leafValues></_>
        <_>
          <internalNodes>
            0 -1 158 1.0832930915057659e-02</internalNodes>
          <leafValues>
            1.2266287952661514e-01 -8.0976796150207520e-01</leafValues></_>
        <_>
          <internalNodes>
            0 -1 74 1.2884273019153625e-05</internalNodes>
          <leafValues>
            1.7901408672332764e-01 -5.1513552665710449e-01</leafValues></_>
        <_>
          <internalNodes>
            0 -1 157 1.2929222430102527e-04</internalNodes>
          <leafValues>
            -2.7116149663925171e-01 3.5192298889160156e-01</leafValues></_>
        <_>
          <internalNodes>
            0 -1 187 -2.6572368369670585e-05</internalNodes>
          <leafValues>
            -3.8795736432075500e-01 2.4835634231567383e-01</leafValues></_>
        <_>
          <internalNodes>
            0 -1 93 -5.2626291289925575e-03</internalNodes>
          <leafValues>
            2.5579142570495605e-01 -4.3425127863883972e-01</leafValues></_>
        <_>
          <internalNodes>
            0 -1 193 1.1735552106983960e-04</internalNodes>
          <leafValues>
            -3.2223543524742126e-01 2.9958403110504150e-01</leafValues></_>
        <_>
          <internalNodes>
            0 -1 205 -2.1170766558498144e-04</internalNodes>
          <leafValues>
            -6.2905830144882202e-01 1.4451536536216736e-01</leafValues></_>
        <_>
          <internalNodes>
            0 -1 126 -5.9321327134966850e-03</internalNodes>
          <leafValues>
            6.6238802671432495e-01 -1.5336254239082336e-01</leafValues></_>
        <_>
          <internalNodes>
            0 -1 199 7.5938540976494551e-04</internalNodes>
          <leafValues>
            -2.8686773777008057e-01 3.2236072421073914e-01</leafValues></_>
        <_>
          <internalNodes>
            0 -1 48 3.9128953358158469e-04</internalNodes>
          <leafValues>
            -1.9156891107559204e-01 5.5043143033981323e-01</leafValues></_>
        <_>
          <internalNodes>
            0 -1 19 -1.5358969569206238e-02</internalNodes>
          <leafValues>
            -4.9810084700584412e-01 2.2009816765785217e-01</leafValues></_>
        <_>
          <internalNodes>
            0 -1 246 -3.5695935366675258e-05</internalNodes>
          <leafValues>
            -6.0948282480239868e-01 1.4933942258358002e-01</leafValues></_></weakClassifiers></_>
    <!-- stage 19 -->
    <_>
      <maxWeakCount>23</maxWeakCount>
      <stageThreshold>-1.5700339078903198e+00</stageThreshold>
      <weakClassifiers>
        <_>
          <internalNodes>
            0 -1 55 9.3786958605051041e-03</internalNodes>
          <leafValues>
            -3.3333334326744080e-01 3.3067730069160461e-01</leafValues></_>
        <_>
          <internalNodes>
            0 -1 78 2.2046491503715515e-03</internalNodes>
          <leafValues>
            1.1619048565626144e-01 -7.2457838058471680e-01</leafValues></_>
        <_>
          <internalNodes>
            0 -1 39 -2.6610400527715683e-04</internalNodes>
          <leafValues>
            4.1608551144599915e-01 -2.0232318341732025e-01</leafValues></_>
        <_>
          <internalNodes>
            0 -1 243 -1.2733371113426983e-04</internalNodes>
          <leafValues>
            2.3173351585865021e-01 -3.4746241569519043e-01</leafValues></_>
        <_>
          <internalNodes>
            0 -1 36 1.6710160707589239e-05</internalNodes>
          <leafValues>
            2.2524006664752960e-01 -3.6512997746467590e-01</leafValues></_>
        <_>
          <internalNodes>
            0 -1 37 1.5562975313514471e-03</internalNodes>
          <leafValues>
            -1.9463920593261719e-01 4.8436772823333740e-01</leafValues></_>
        <_>
          <internalNodes>
            0 -1 195 -3.9990485674934462e-05</internalNodes>
          <leafValues>
            -5.7537746429443359e-01 1.8594048917293549e-01</leafValues></_>
        <_>
          <internalNodes>
            0 -1 255 -4.6616250983788632e-06</internalNodes>
          <leafValues>
            2.1528731286525726e-01 -4.0999555587768555e-01</leafValues></_>
        <_>
          <internalNodes>
            0 -1 30 7.0818029344081879e-02</internalNodes>
          <leafValues>
            -1.5546904504299164e-01 6.7169666290283203e-01</leafValues></_>
        <_>
          <internalNodes>
            0 -1 281 1.1251423275098205e-03</internalNodes>
          <leafValues>
            -1.8313549458980560e-01 4.9127328395843506e-01</leafValues></_>
        <_>
          <internalNodes>
            0 -1 198 3.7036067806184292e-04</internalNodes>
          <leafValues>
            -3.3291384577751160e-01 3.0052563548088074e-01</leafValues></_>
        <_>
          <internalNodes>
            0 -1 18 6.6958093084394932e-03</internalNodes>
          <leafValues>
            -5.2655160427093506e-01 1.8373046815395355e-01</leafValues></_>
        <_>
          <internalNodes>
            0 -1 251 -1.3666617633134592e-05</internalNodes>
          <leafValues>
            -4.4063887000083923e-01 1.8257194757461548e-01</leafValues></_>
        <_>
          <internalNodes>
            0 -1 263 1.6393449157476425e-02</internalNodes>
          <leafValues>
            -1.9084307551383972e-01 5.0462716817855835e-01</leafValues></_>
        <_>
          <internalNodes>
            0 -1 148 4.0296032093465328e-03</internalNodes>
          <leafValues>
            -2.1129159629344940e-01 4.4570857286453247e-01</leafValues></_>
        <_>
          <internalNodes>
            0 -1 147 -7.9285781830549240e-03</internalNodes>
          <leafValues>
            4.2824301123619080e-01 -2.5182080268859863e-01</leafValues></_>
        <_>
          <internalNodes>
            0 -1 204 -1.8940586414828431e-06</internalNodes>
          <leafValues>
            2.4482202529907227e-01 -4.7513538599014282e-01</leafValues></_>
        <_>
          <internalNodes>
            0 -1 22 8.6867056787014008e-02</internalNodes>
          <leafValues>
            -1.3704729080200195e-01 7.6661419868469238e-01</leafValues></_>
        <_>
          <internalNodes>
            0 -1 288 -2.5268071331083775e-03</internalNodes>
          <leafValues>
            -6.8830990791320801e-01 1.4670294523239136e-01</leafValues></_>
        <_>
          <internalNodes>
            0 -1 139 1.4528744031849783e-05</internalNodes>
          <leafValues>
            1.9577632844448090e-01 -4.5141050219535828e-01</leafValues></_>
        <_>
          <internalNodes>
            0 -1 192 5.7426586863584816e-06</internalNodes>
          <leafValues>
            -3.6174094676971436e-01 2.7299508452415466e-01</leafValues></_>
        <_>
          <internalNodes>
            0 -1 50 -1.1917504668235779e-01</internalNodes>
          <leafValues>
            -9.6233886480331421e-01 8.9014530181884766e-02</leafValues></_>
        <_>
          <internalNodes>
            0 -1 267 -1.1568698391783983e-04</internalNodes>
          <leafValues>
            -5.1992040872573853e-01 1.6330140829086304e-01</leafValues></_></weakClassifiers></_></stages>
  <features>
    <_>
      <rects>
        <_>
          0 2 80 38 -1.</_>
        <_>
          20 2 40 38 2.</_></rects>
      <tilted>0</tilted></_>
    <_>
      <rects>
        <_>
          0 4 68 30 -1.</_>
        <_>
          17 4 34 30 2.</_></rects>
      <tilted>0</tilted></_>
    <_>
      <rects>
        <_>
          0 5 80 8 -1.</_>
        <_>
          20 5 40 8 2.</_></rects>
      <tilted>0</tilted></_>
    <_>
      <rects>
        <_>
          0 8 72 31 -1.</_>
        <_>
          18 8 36 31 2.</_></rects>
      <tilted>0</tilted></_>
    <_>
      <rects>
        <_>
          0 19 48 20 -1.</_>
        <_>
          12 19 24 20 2.</_></rects>
      <tilted>0</tilted></_>
    <_>
      <rects>
        <_>
          0 31 80 7 -1.</_>
        <_>
          20 31 40 7 2.</_></rects>
      <tilted>0</tilted></_>
    <_>
      <rects>
        <_>
          1 7 76 12 -1.</_>
        <_>
          20 7 38 12 2.</_></rects>
      <tilted>0</tilted></_>
    <_>
      <rects>
        <_>
          2 2 76 38 -1.</_>
        <_>
          21 2 38 38 2.</_></rects>
      <tilted>0</tilted></_>
    <_>
      <rects>
        <_>
          4 2 44 26 -1.</_>
        <_>
          4 2 22 13 2.</_>
        <_>
          26 15 22 13 2.</_></rects>
      <tilted>0</tilted></_>
    <_>
      <rects>
        <_>
          5 24 42 12 -1.</_>
        <_>
          5 24 21 6 2.</_>
        <_>
          26 30 21 6 2.</_></rects>
      <tilted>0</tilted></_>
    <_>
      <rects>
        <_>
          5 31 72 9 -1.</_>
        <_>
          29 34 24 3 9.</_></rects>
      <tilted>0</tilted></_>
    <_>
      <rects>
        <_>
          9 9 27 25 -1.</_>
        <_>
          18 9 9 25 3.</_></rects>
      <tilted>0</tilted></_>
    <_>
      <rects>
        <_>
          9 10 18 22 -1.</_>
        <_>
          18 10 9 22 2.</_></rects>
      <tilted>0</tilted></_>
    <_>
      <rects>
        <_>
          9 10 30 25 -1.</_>
        <_>
          19 10 10 25 3.</_></rects>
      <tilted>0</tilted></_>
    <_>
      <rects>
        <_>
          9 36 60 2 -1.</_>
        <_>
          24 36 30 2 2.</_></rects>
      <tilted>0</tilted></_>
    <_>
      <rects>
        <_>
          10 4 60 2 -1.</_>
        <_>
          25 4 30 2 2.</_></rects>
      <tilted>0</tilted></_>
    <_>
      <rects>
        <_>
          11 2 20 35 -1.</_>
        <_>
          21 2 10 35 2.</_></rects>
      <tilted>0</tilted></_>
    <_>
      <rects>
        <_>
          11 10 28 19 -1.</_>
        <_>
          18 10 14 19 2.</_></rects>
      <tilted>0</tilted></_>
    <_>
      <rects>
        <_>
          11 12 20 20 -1.</_>
        <_>
          16 12 10 20 2.</_></rects>
      <tilted>0</tilted></_>
    <_>
      <rects>
        <_>
          12 4 6 36 -1.</_>
        <_>
          14 16 2 12 9.</_></rects>
      <tilted>0</tilted></_>
    <_>
      <rects>
        <_>
          12 9 20 25 -1.</_>
        <_>
          17 9 10 25 2.</_></rects>
      <tilted>0</tilted></_>
    <_>
      <rects>
        <_>
          12 16 28 19 -1.</_>
        <_>
          19 16 14 19 2.</_></rects>
      <tilted>0</tilted></_>
    <_>
      <rects>
        <_>
          14 28 24 12 -1.</_>
        <_>
          22 32 8 4 9.</_></rects>
      <tilted>0</tilted></_>
    <_>
      <rects>
        <_>
          15 11 12 18 -1.</_>
        <_>
          18 11 6 18 2.</_></rects>
      <tilted>0</tilted></_>
    <_>
      <rects>
        <_>
          15 16 15 14 -1.</_>
        <_>
          20 16 5 14 3.</_></rects>
      <tilted>0</tilted></_>
    <_>
      <rects>
        <_>
          16 28 24 10 -1.</_>
        <_>
          16 28 12 5 2.</_>
        <_>
          28 33 12 5 2.</_></rects>
      <tilted>0</tilted></_>
    <_>
      <rects>
        <_>
          17 10 8 16 -1.</_>
        <_>
          19 10 4 16 2.</_></rects>
      <tilted>0</tilted></_>
    <_>
      <rects>
        <_>
          18 14 4 12 -1.</_>
        <_>
          19 14 2 12 2.</_></rects>
      <tilted>0</tilted></_>
    <_>
      <rects>
        <_>
          18 14 46 26 -1.</_>
        <_>
          41 14 23 26 2.</_></rects>
      <tilted>0</tilted></_>
    <_>
      <rects>
        <_>
          18 23 16 16 -1.</_>
        <_>
          18 23 8 8 2.</_>
        <_>
          26 31 8 8 2.</_></rects>
      <tilted>0</tilted></_>
    <_>
      <rects>
        <_>
          18 34 45 6 -1.</_>
        <_>
          33 36 15 2 9.</_></rects>
      <tilted>0</tilted></_>
    <_>
      <rects>
        <_>
          19 5 6 18 -1.</_>
        <_>
          19 5 3 9 2.</_>
        <_>
          22 14 3 9 2.</_></rects>
      <tilted>0</tilted></_>
    <_>
      <rects>
        <_>
          19 12 10 24 -1.</_>
        <_>
          19 12 5 12 2.</_>
        <_>
          24 24 5 12 2.</_></rects>
      <tilted>0</tilted></_>
    <_>
      <rects>
        <_>
          19 15 3 10 -1.</_>
        <_>
          20 15 1 10 3.</_></rects>
      <tilted>0</tilted></_>
    <_>
      <rects>
        <_>
          19 17 4 10 -1.</_>
        <_>
          20 17 2 10 2.</_></rects>
      <tilted>0</tilted></_>
    <_>
      <rects>
        <_>
          19 24 1 4 -1.</_>
        <_>
          19 26 1 2 2.</_></rects>
      <tilted>0</tilted></_>
    <_>
      <rects>
        <_>
          20 8 2 2 -1.</_>
        <_>
          21 8 1 2 2.</_></rects>
      <tilted>0</tilted></_>
    <_>
      <rects>
        <_>
          20 9 3 20 -1.</_>
        <_>
          21 9 1 20 3.</_></rects>
      <tilted>0</tilted></_>
    <_>
      <rects>
        <_>
          20 13 4 11 -1.</_>
        <_>
          22 13 2 11 2.</_></rects>
      <tilted>0</tilted></_>
    <_>
      <rects>
        <_>
          20 14 3 11 -1.</_>
        <_>
          21 14 1 11 3.</_></rects>
      <tilted>0</tilted></_>
    <_>
      <rects>
        <_>
          20 15 3 10 -1.</_>
        <_>
          21 15 1 10 3.</_></rects>
      <tilted>0</tilted></_>
    <_>
      <rects>
        <_>
          20 17 4 16 -1.</_>
        <_>
          20 17 2 8 2.</_>
        <_>
          22 25 2 8 2.</_></rects>
      <tilted>0</tilted></_>
    <_>
      <rects>
        <_>
          20 22 16 2 -1.</_>
        <_>
          20 22 16 1 2.</_></rects>
      <tilted>1</tilted></_>
    <_>
      <rects>
        <_>
          21 0 39 12 -1.</_>
        <_>
          21 3 39 6 2.</_></rects>
      <tilted>0</tilted></_>
    <_>
      <rects>
        <_>
          21 11 57 5 -1.</_>
        <_>
          40 11 19 5 3.</_></rects>
      <tilted>0</tilted></_>
    <_>
      <rects>
        <_>
          21 12 2 8 -1.</_>
        <_>
          21 12 1 4 2.</_>
        <_>
          22 16 1 4 2.</_></rects>
      <tilted>0</tilted></_>
    <_>
      <rects>
        <_>
          21 12 14 4 -1.</_>
        <_>
          21 14 14 2 2.</_></rects>
      <tilted>0</tilted></_>
    <_>
      <rects>
        <_>
          22 4 30 6 -1.</_>
        <_>
          22 7 30 3 2.</_></rects>
      <tilted>0</tilted></_>
    <_>
      <rects>
        <_>
          22 11 2 12 -1.</_>
        <_>
          22 11 1 6 2.</_>
        <_>
          23 17 1 6 2.</_></rects>
      <tilted>0</tilted></_>
    <_>
      <rects>
        <_>
          22 11 42 20 -1.</_>
        <_>
          22 21 42 10 2.</_></rects>
      <tilted>0</tilted></_>
    <_>
      <rects>
        <_>
          22 11 52 20 -1.</_>
        <_>
          22 21 52 10 2.</_></rects>
      <tilted>0</tilted></_>
    <_>
      <rects>
        <_>
          22 12 3 3 -1.</_>
        <_>
          23 13 1 3 3.</_></rects>
      <tilted>1</tilted></_>
    <_>
      <rects>
        <_>
          22 14 12 9 -1.</_>
        <_>
          19 17 12 3 3.</_></rects>
      <tilted>1</tilted></_>
    <_>
      <rects>
        <_>
          23 0 37 6 -1.</_>
        <_>
          23 3 37 3 2.</_></rects>
      <tilted>0</tilted></_>
    <_>
      <rects>
        <_>
          24 0 12 11 -1.</_>
        <_>
          28 4 4 11 3.</_></rects>
      <tilted>1</tilted></_>
    <_>
      <rects>
        <_>
          24 0 37 12 -1.</_>
        <_>
          24 3 37 6 2.</_></rects>
      <tilted>0</tilted></_>
    <_>
      <rects>
        <_>
          24 1 9 9 -1.</_>
        <_>
          27 4 3 9 3.</_></rects>
      <tilted>1</tilted></_>
    <_>
      <rects>
        <_>
          24 7 2 3 -1.</_>
        <_>
          25 7 1 3 2.</_></rects>
      <tilted>0</tilted></_>
    <_>
      <rects>
        <_>
          24 9 31 24 -1.</_>
        <_>
          24 15 31 12 2.</_></rects>
      <tilted>0</tilted></_>
    <_>
      <rects>
        <_>
          24 14 6 4 -1.</_>
        <_>
          24 16 6 2 2.</_></rects>
      <tilted>0</tilted></_>
    <_>
      <rects>
        <_>
          24 17 7 2 -1.</_>
        <_>
          24 18 7 1 2.</_></rects>
      <tilted>0</tilted></_>
    <_>
      <rects>
        <_>
          24 24 1 2 -1.</_>
        <_>
          24 25 1 1 2.</_></rects>
      <tilted>0</tilted></_>
    <_>
      <rects>
        <_>
          25 0 9 8 -1.</_>
        <_>
          28 3 3 8 3.</_></rects>
      <tilted>1</tilted></_>
    <_>
      <rects>
        <_>
          25 13 2 10 -1.</_>
        <_>
          25 18 2 5 2.</_></rects>
      <tilted>0</tilted></_>
    <_>
      <rects>
        <_>
          25 16 12 12 -1.</_>
        <_>
          21 20 12 4 3.</_></rects>
      <tilted>1</tilted></_>
    <_>
      <rects>
        <_>
          25 18 6 2 -1.</_>
        <_>
          25 19 6 1 2.</_></rects>
      <tilted>0</tilted></_>
    <_>
      <rects>
        <_>
          25 18 11 9 -1.</_>
        <_>
          22 21 11 3 3.</_></rects>
      <tilted>1</tilted></_>
    <_>
      <rects>
        <_>
          25 20 10 6 -1.</_>
        <_>
          23 22 10 2 3.</_></rects>
      <tilted>1</tilted></_>
    <_>
      <rects>
        <_>
          25 21 10 9 -1.</_>
        <_>
          22 24 10 3 3.</_></rects>
      <tilted>1</tilted></_>
    <_>
      <rects>
        <_>
          25 22 1 2 -1.</_>
        <_>
          25 23 1 1 2.</_></rects>
      <tilted>0</tilted></_>
    <_>
      <rects>
        <_>
          25 23 9 4 -1.</_>
        <_>
          24 24 9 2 2.</_></rects>
      <tilted>1</tilted></_>
    <_>
      <rects>
        <_>
          25 28 4 1 -1.</_>
        <_>
          27 28 2 1 2.</_></rects>
      <tilted>0</tilted></_>
    <_>
      <rects>
        <_>
          25 32 32 8 -1.</_>
        <_>
          25 34 32 4 2.</_></rects>
      <tilted>0</tilted></_>
    <_>
      <rects>
        <_>
          26 0 9 14 -1.</_>
        <_>
          29 3 3 14 3.</_></rects>
      <tilted>1</tilted></_>
    <_>
      <rects>
        <_>
          26 5 2 1 -1.</_>
        <_>
          27 5 1 1 2.</_></rects>
      <tilted>0</tilted></_>
    <_>
      <rects>
        <_>
          26 5 2 11 -1.</_>
        <_>
          27 5 1 11 2.</_></rects>
      <tilted>0</tilted></_>
    <_>
      <rects>
        <_>
          26 8 20 27 -1.</_>
        <_>
          31 8 10 27 2.</_></rects>
      <tilted>0</tilted></_>
    <_>
      <rects>
        <_>
          26 9 3 6 -1.</_>
        <_>
          27 10 1 6 3.</_></rects>
      <tilted>1</tilted></_>
    <_>
      <rects>
        <_>
          26 15 6 6 -1.</_>
        <_>
          28 17 2 2 9.</_></rects>
      <tilted>0</tilted></_>
    <_>
      <rects>
        <_>
          26 17 30 14 -1.</_>
        <_>
          26 24 30 7 2.</_></rects>
      <tilted>0</tilted></_>
    <_>
      <rects>
        <_>
          26 20 1 2 -1.</_>
        <_>
          26 20 1 1 2.</_></rects>
      <tilted>1</tilted></_>
    <_>
      <rects>
        <_>
          26 21 9 9 -1.</_>
        <_>
          23 24 9 3 3.</_></rects>
      <tilted>1</tilted></_>
    <_>
      <rects>
        <_>
          26 24 7 9 -1.</_>
        <_>
          23 27 7 3 3.</_></rects>
      <tilted>1</tilted></_>
    <_>
      <rects>
        <_>
          27 0 28 9 -1.</_>
        <_>
          27 3 28 3 3.</_></rects>
      <tilted>0</tilted></_>
    <_>
      <rects>
        <_>
          27 11 20 19 -1.</_>
        <_>
          32 11 10 19 2.</_></rects>
      <tilted>0</tilted></_>
    <_>
      <rects>
        <_>
          27 14 13 10 -1.</_>
        <_>
          27 14 13 5 2.</_></rects>
      <tilted>1</tilted></_>
    <_>
      <rects>
        <_>
          27 19 20 4 -1.</_>
        <_>
          37 19 10 4 2.</_></rects>
      <tilted>0</tilted></_>
    <_>
      <rects>
        <_>
          27 22 5 6 -1.</_>
        <_>
          25 24 5 2 3.</_></rects>
      <tilted>1</tilted></_>
    <_>
      <rects>
        <_>
          27 23 6 12 -1.</_>
        <_>
          30 23 3 12 2.</_></rects>
      <tilted>0</tilted></_>
    <_>
      <rects>
        <_>
          27 27 5 12 -1.</_>
        <_>
          27 31 5 4 3.</_></rects>
      <tilted>0</tilted></_>
    <_>
      <rects>
        <_>
          27 28 48 12 -1.</_>
        <_>
          51 28 24 12 2.</_></rects>
      <tilted>0</tilted></_>
    <_>
      <rects>
        <_>
          28 3 44 22 -1.</_>
        <_>
          28 3 22 11 2.</_>
        <_>
          50 14 22 11 2.</_></rects>
      <tilted>0</tilted></_>
    <_>
      <rects>
        <_>
          28 9 1 14 -1.</_>
        <_>
          28 16 1 7 2.</_></rects>
      <tilted>0</tilted></_>
    <_>
      <rects>
        <_>
          28 9 20 19 -1.</_>
        <_>
          33 9 10 19 2.</_></rects>
      <tilted>0</tilted></_>
    <_>
      <rects>
        <_>
          28 13 2 4 -1.</_>
        <_>
          27 14 2 2 2.</_></rects>
      <tilted>1</tilted></_>
    <_>
      <rects>
        <_>
          28 19 12 6 -1.</_>
        <_>
          32 21 4 2 9.</_></rects>
      <tilted>0</tilted></_>
    <_>
      <rects>
        <_>
          28 19 10 9 -1.</_>
        <_>
          25 22 10 3 3.</_></rects>
      <tilted>1</tilted></_>
    <_>
      <rects>
        <_>
          28 24 8 14 -1.</_>
        <_>
          32 24 4 14 2.</_></rects>
      <tilted>0</tilted></_>
    <_>
      <rects>
        <_>
          28 25 4 1 -1.</_>
        <_>
          29 25 2 1 2.</_></rects>
      <tilted>0</tilted></_>
    <_>
      <rects>
        <_>
          28 26 1 2 -1.</_>
        <_>
          28 27 1 1 2.</_></rects>
      <tilted>0</tilted></_>
    <_>
      <rects>
        <_>
          29 3 11 36 -1.</_>
        <_>
          29 12 11 18 2.</_></rects>
      <tilted>0</tilted></_>
    <_>
      <rects>
        <_>
          29 11 16 19 -1.</_>
        <_>
          33 11 8 19 2.</_></rects>
      <tilted>0</tilted></_>
    <_>
      <rects>
        <_>
          29 14 33 12 -1.</_>
        <_>
          40 18 11 4 9.</_></rects>
      <tilted>0</tilted></_>
    <_>
      <rects>
        <_>
          29 18 2 2 -1.</_>
        <_>
          29 18 2 1 2.</_></rects>
      <tilted>1</tilted></_>
    <_>
      <rects>
        <_>
          29 20 3 3 -1.</_>
        <_>
          30 21 1 1 9.</_></rects>
      <tilted>0</tilted></_>
    <_>
      <rects>
        <_>
          29 20 1 2 -1.</_>
        <_>
          29 20 1 1 2.</_></rects>
      <tilted>1</tilted></_>
    <_>
      <rects>
        <_>
          29 20 1 3 -1.</_>
        <_>
          28 21 1 1 3.</_></rects>
      <tilted>1</tilted></_>
    <_>
      <rects>
        <_>
          29 20 2 2 -1.</_>
        <_>
          29 21 2 1 2.</_></rects>
      <tilted>0</tilted></_>
    <_>
      <rects>
        <_>
          29 23 1 2 -1.</_>
        <_>
          29 24 1 1 2.</_></rects>
      <tilted>0</tilted></_>
    <_>
      <rects>
        <_>
          29 24 2 1 -1.</_>
        <_>
          29 24 1 1 2.</_></rects>
      <tilted>1</tilted></_>
    <_>
      <rects>
        <_>
          29 27 1 2 -1.</_>
        <_>
          29 28 1 1 2.</_></rects>
      <tilted>0</tilted></_>
    <_>
      <rects>
        <_>
          30 0 7 40 -1.</_>
        <_>
          30 10 7 20 2.</_></rects>
      <tilted>0</tilted></_>
    <_>
      <rects>
        <_>
          30 4 19 32 -1.</_>
        <_>
          30 20 19 16 2.</_></rects>
      <tilted>0</tilted></_>
    <_>
      <rects>
        <_>
          30 9 2 14 -1.</_>
        <_>
          30 16 2 7 2.</_></rects>
      <tilted>0</tilted></_>
    <_>
      <rects>
        <_>
          30 14 12 12 -1.</_>
        <_>
          34 18 4 4 9.</_></rects>
      <tilted>0</tilted></_>
    <_>
      <rects>
        <_>
          30 14 16 16 -1.</_>
        <_>
          34 14 8 16 2.</_></rects>
      <tilted>0</tilted></_>
    <_>
      <rects>
        <_>
          30 15 12 9 -1.</_>
        <_>
          34 18 4 3 9.</_></rects>
      <tilted>0</tilted></_>
    <_>
      <rects>
        <_>
          30 16 21 9 -1.</_>
        <_>
          37 19 7 3 9.</_></rects>
      <tilted>0</tilted></_>
    <_>
      <rects>
        <_>
          30 18 1 4 -1.</_>
        <_>
          30 20 1 2 2.</_></rects>
      <tilted>0</tilted></_>
    <_>
      <rects>
        <_>
          30 21 1 2 -1.</_>
        <_>
          30 21 1 1 2.</_></rects>
      <tilted>1</tilted></_>
    <_>
      <rects>
        <_>
          30 26 5 8 -1.</_>
        <_>
          30 26 5 4 2.</_></rects>
      <tilted>1</tilted></_>
    <_>
      <rects>
        <_>
          30 26 8 12 -1.</_>
        <_>
          30 30 8 4 3.</_></rects>
      <tilted>0</tilted></_>
    <_>
      <rects>
        <_>
          30 27 2 1 -1.</_>
        <_>
          31 27 1 1 2.</_></rects>
      <tilted>0</tilted></_>
    <_>
      <rects>
        <_>
          30 28 2 2 -1.</_>
        <_>
          30 29 2 1 2.</_></rects>
      <tilted>0</tilted></_>
    <_>
      <rects>
        <_>
          30 28 5 4 -1.</_>
        <_>
          30 28 5 2 2.</_></rects>
      <tilted>1</tilted></_>
    <_>
      <rects>
        <_>
          30 31 7 9 -1.</_>
        <_>
          30 34 7 3 3.</_></rects>
      <tilted>0</tilted></_>
    <_>
      <rects>
        <_>
          31 0 12 12 -1.</_>
        <_>
          31 3 12 6 2.</_></rects>
      <tilted>0</tilted></_>
    <_>
      <rects>
        <_>
          31 5 14 28 -1.</_>
        <_>
          31 19 14 14 2.</_></rects>
      <tilted>0</tilted></_>
    <_>
      <rects>
        <_>
          31 7 22 20 -1.</_>
        <_>
          31 17 22 10 2.</_></rects>
      <tilted>0</tilted></_>
    <_>
      <rects>
        <_>
          31 10 21 4 -1.</_>
        <_>
          31 12 21 2 2.</_></rects>
      <tilted>0</tilted></_>
    <_>
      <rects>
        <_>
          31 14 14 8 -1.</_>
        <_>
          31 18 14 4 2.</_></rects>
      <tilted>0</tilted></_>
    <_>
      <rects>
        <_>
          31 15 6 5 -1.</_>
        <_>
          33 15 2 5 3.</_></rects>
      <tilted>0</tilted></_>
    <_>
      <rects>
        <_>
          31 22 1 2 -1.</_>
        <_>
          31 22 1 1 2.</_></rects>
      <tilted>1</tilted></_>
    <_>
      <rects>
        <_>
          31 23 1 2 -1.</_>
        <_>
          31 23 1 1 2.</_></rects>
      <tilted>1</tilted></_>
    <_>
      <rects>
        <_>
          31 25 1 2 -1.</_>
        <_>
          31 25 1 1 2.</_></rects>
      <tilted>1</tilted></_>
    <_>
      <rects>
        <_>
          31 27 2 10 -1.</_>
        <_>
          31 32 2 5 2.</_></rects>
      <tilted>0</tilted></_>
    <_>
      <rects>
        <_>
          31 30 2 2 -1.</_>
        <_>
          31 31 2 1 2.</_></rects>
      <tilted>0</tilted></_>
    <_>
      <rects>
        <_>
          32 0 24 2 -1.</_>
        <_>
          32 1 24 1 2.</_></rects>
      <tilted>0</tilted></_>
    <_>
      <rects>
        <_>
          32 3 2 15 -1.</_>
        <_>
          32 3 1 15 2.</_></rects>
      <tilted>1</tilted></_>
    <_>
      <rects>
        <_>
          32 29 1 2 -1.</_>
        <_>
          32 30 1 1 2.</_></rects>
      <tilted>0</tilted></_>
    <_>
      <rects>
        <_>
          32 29 3 1 -1.</_>
        <_>
          33 29 1 1 3.</_></rects>
      <tilted>0</tilted></_>
    <_>
      <rects>
        <_>
          32 30 2 1 -1.</_>
        <_>
          33 30 1 1 2.</_></rects>
      <tilted>0</tilted></_>
    <_>
      <rects>
        <_>
          32 31 1 2 -1.</_>
        <_>
          32 32 1 1 2.</_></rects>
      <tilted>0</tilted></_>
    <_>
      <rects>
        <_>
          33 0 31 2 -1.</_>
        <_>
          33 1 31 1 2.</_></rects>
      <tilted>0</tilted></_>
    <_>
      <rects>
        <_>
          33 3 12 13 -1.</_>
        <_>
          37 3 4 13 3.</_></rects>
      <tilted>0</tilted></_>
    <_>
      <rects>
        <_>
          33 5 20 30 -1.</_>
        <_>
          33 20 20 15 2.</_></rects>
      <tilted>0</tilted></_>
    <_>
      <rects>
        <_>
          33 8 4 6 -1.</_>
        <_>
          33 8 4 3 2.</_></rects>
      <tilted>1</tilted></_>
    <_>
      <rects>
        <_>
          33 10 14 15 -1.</_>
        <_>
          33 15 14 5 3.</_></rects>
      <tilted>0</tilted></_>
    <_>
      <rects>
        <_>
          33 13 14 12 -1.</_>
        <_>
          33 17 14 4 3.</_></rects>
      <tilted>0</tilted></_>
    <_>
      <rects>
        <_>
          33 25 28 15 -1.</_>
        <_>
          33 30 28 5 3.</_></rects>
      <tilted>0</tilted></_>
    <_>
      <rects>
        <_>
          33 28 12 7 -1.</_>
        <_>
          37 28 4 7 3.</_></rects>
      <tilted>0</tilted></_>
    <_>
      <rects>
        <_>
          34 0 2 16 -1.</_>
        <_>
          34 0 1 16 2.</_></rects>
      <tilted>1</tilted></_>
    <_>
      <rects>
        <_>
          34 0 4 16 -1.</_>
        <_>
          35 1 2 16 2.</_></rects>
      <tilted>1</tilted></_>
    <_>
      <rects>
        <_>
          34 0 15 32 -1.</_>
        <_>
          39 0 5 32 3.</_></rects>
      <tilted>0</tilted></_>
    <_>
      <rects>
        <_>
          34 3 19 18 -1.</_>
        <_>
          34 3 19 9 2.</_></rects>
      <tilted>1</tilted></_>
    <_>
      <rects>
        <_>
          34 4 12 18 -1.</_>
        <_>
          38 4 4 18 3.</_></rects>
      <tilted>0</tilted></_>
    <_>
      <rects>
        <_>
          34 11 4 1 -1.</_>
        <_>
          35 11 2 1 2.</_></rects>
      <tilted>0</tilted></_>
    <_>
      <rects>
        <_>
          34 11 4 4 -1.</_>
        <_>
          35 12 2 4 2.</_></rects>
      <tilted>1</tilted></_>
    <_>
      <rects>
        <_>
          34 13 12 9 -1.</_>
        <_>
          38 16 4 3 9.</_></rects>
      <tilted>0</tilted></_>
    <_>
      <rects>
        <_>
          34 25 24 15 -1.</_>
        <_>
          34 30 24 5 3.</_></rects>
      <tilted>0</tilted></_>
    <_>
      <rects>
        <_>
          34 27 8 12 -1.</_>
        <_>
          34 31 8 4 3.</_></rects>
      <tilted>0</tilted></_>
    <_>
      <rects>
        <_>
          34 27 13 12 -1.</_>
        <_>
          34 31 13 4 3.</_></rects>
      <tilted>0</tilted></_>
    <_>
      <rects>
        <_>
          34 29 2 1 -1.</_>
        <_>
          35 29 1 1 2.</_></rects>
      <tilted>0</tilted></_>
    <_>
      <rects>
        <_>
          34 30 2 2 -1.</_>
        <_>
          34 31 2 1 2.</_></rects>
      <tilted>0</tilted></_>
    <_>
      <rects>
        <_>
          34 31 2 1 -1.</_>
        <_>
          35 31 1 1 2.</_></rects>
      <tilted>0</tilted></_>
    <_>
      <rects>
        <_>
          35 6 15 10 -1.</_>
        <_>
          40 6 5 10 3.</_></rects>
      <tilted>0</tilted></_>
    <_>
      <rects>
        <_>
          35 10 18 21 -1.</_>
        <_>
          41 17 6 7 9.</_></rects>
      <tilted>0</tilted></_>
    <_>
      <rects>
        <_>
          35 11 6 1 -1.</_>
        <_>
          37 11 2 1 3.</_></rects>
      <tilted>0</tilted></_>
    <_>
      <rects>
        <_>
          35 14 9 6 -1.</_>
        <_>
          38 16 3 2 9.</_></rects>
      <tilted>0</tilted></_>
    <_>
      <rects>
        <_>
          35 14 12 12 -1.</_>
        <_>
          39 18 4 4 9.</_></rects>
      <tilted>0</tilted></_>
    <_>
      <rects>
        <_>
          35 20 9 6 -1.</_>
        <_>
          38 22 3 2 9.</_></rects>
      <tilted>0</tilted></_>
    <_>
      <rects>
        <_>
          35 27 6 12 -1.</_>
        <_>
          35 31 6 4 3.</_></rects>
      <tilted>0</tilted></_>
    <_>
      <rects>
        <_>
          35 28 4 1 -1.</_>
        <_>
          37 28 2 1 2.</_></rects>
      <tilted>0</tilted></_>
    <_>
      <rects>
        <_>
          36 4 4 1 -1.</_>
        <_>
          38 4 2 1 2.</_></rects>
      <tilted>0</tilted></_>
    <_>
      <rects>
        <_>
          36 4 9 12 -1.</_>
        <_>
          39 4 3 12 3.</_></rects>
      <tilted>0</tilted></_>
    <_>
      <rects>
        <_>
          36 8 36 25 -1.</_>
        <_>
          48 8 12 25 3.</_></rects>
      <tilted>0</tilted></_>
    <_>
      <rects>
        <_>
          36 9 12 31 -1.</_>
        <_>
          40 9 4 31 3.</_></rects>
      <tilted>0</tilted></_>
    <_>
      <rects>
        <_>
          36 13 9 6 -1.</_>
        <_>
          39 15 3 2 9.</_></rects>
      <tilted>0</tilted></_>
    <_>
      <rects>
        <_>
          36 13 9 12 -1.</_>
        <_>
          39 17 3 4 9.</_></rects>
      <tilted>0</tilted></_>
    <_>
      <rects>
        <_>
          36 14 9 12 -1.</_>
        <_>
          39 18 3 4 9.</_></rects>
      <tilted>0</tilted></_>
    <_>
      <rects>
        <_>
          36 15 1 6 -1.</_>
        <_>
          36 18 1 3 2.</_></rects>
      <tilted>0</tilted></_>
    <_>
      <rects>
        <_>
          36 18 6 3 -1.</_>
        <_>
          38 19 2 1 9.</_></rects>
      <tilted>0</tilted></_>
    <_>
      <rects>
        <_>
          36 19 12 6 -1.</_>
        <_>
          39 19 6 6 2.</_></rects>
      <tilted>0</tilted></_>
    <_>
      <rects>
        <_>
          36 20 6 6 -1.</_>
        <_>
          38 22 2 2 9.</_></rects>
      <tilted>0</tilted></_>
    <_>
      <rects>
        <_>
          36 25 12 12 -1.</_>
        <_>
          40 25 4 12 3.</_></rects>
      <tilted>0</tilted></_>
    <_>
      <rects>
        <_>
          37 13 4 1 -1.</_>
        <_>
          38 13 2 1 2.</_></rects>
      <tilted>0</tilted></_>
    <_>
      <rects>
        <_>
          37 13 1 8 -1.</_>
        <_>
          37 17 1 4 2.</_></rects>
      <tilted>0</tilted></_>
    <_>
      <rects>
        <_>
          37 14 9 12 -1.</_>
        <_>
          40 18 3 4 9.</_></rects>
      <tilted>0</tilted></_>
    <_>
      <rects>
        <_>
          37 16 6 1 -1.</_>
        <_>
          39 18 2 1 3.</_></rects>
      <tilted>1</tilted></_>
    <_>
      <rects>
        <_>
          37 18 2 10 -1.</_>
        <_>
          37 18 1 5 2.</_>
        <_>
          38 23 1 5 2.</_></rects>
      <tilted>0</tilted></_>
    <_>
      <rects>
        <_>
          37 18 12 3 -1.</_>
        <_>
          41 18 4 3 3.</_></rects>
      <tilted>0</tilted></_>
    <_>
      <rects>
        <_>
          37 19 3 3 -1.</_>
        <_>
          38 20 1 1 9.</_></rects>
      <tilted>0</tilted></_>
    <_>
      <rects>
        <_>
          37 19 3 6 -1.</_>
        <_>
          38 21 1 2 9.</_></rects>
      <tilted>0</tilted></_>
    <_>
      <rects>
        <_>
          37 21 6 6 -1.</_>
        <_>
          39 23 2 2 9.</_></rects>
      <tilted>0</tilted></_>
    <_>
      <rects>
        <_>
          38 3 9 31 -1.</_>
        <_>
          41 3 3 31 3.</_></rects>
      <tilted>0</tilted></_>
    <_>
      <rects>
        <_>
          38 11 4 1 -1.</_>
        <_>
          39 11 2 1 2.</_></rects>
      <tilted>0</tilted></_>
    <_>
      <rects>
        <_>
          38 12 39 20 -1.</_>
        <_>
          51 12 13 20 3.</_></rects>
      <tilted>0</tilted></_>
    <_>
      <rects>
        <_>
          38 13 6 1 -1.</_>
        <_>
          40 13 2 1 3.</_></rects>
      <tilted>0</tilted></_>
    <_>
      <rects>
        <_>
          38 13 6 6 -1.</_>
        <_>
          40 15 2 2 9.</_></rects>
      <tilted>0</tilted></_>
    <_>
      <rects>
        <_>
          38 14 6 2 -1.</_>
        <_>
          38 14 3 2 2.</_></rects>
      <tilted>1</tilted></_>
    <_>
      <rects>
        <_>
          38 16 3 3 -1.</_>
        <_>
          39 17 1 1 9.</_></rects>
      <tilted>0</tilted></_>
    <_>
      <rects>
        <_>
          38 17 3 1 -1.</_>
        <_>
          39 18 1 1 3.</_></rects>
      <tilted>1</tilted></_>
    <_>
      <rects>
        <_>
          38 17 8 3 -1.</_>
        <_>
          38 17 4 3 2.</_></rects>
      <tilted>1</tilted></_>
    <_>
      <rects>
        <_>
          38 18 1 2 -1.</_>
        <_>
          38 19 1 1 2.</_></rects>
      <tilted>0</tilted></_>
    <_>
      <rects>
        <_>
          38 19 1 2 -1.</_>
        <_>
          38 20 1 1 2.</_></rects>
      <tilted>0</tilted></_>
    <_>
      <rects>
        <_>
          39 15 4 4 -1.</_>
        <_>
          40 16 2 4 2.</_></rects>
      <tilted>1</tilted></_>
    <_>
      <rects>
        <_>
          39 16 6 8 -1.</_>
        <_>
          42 16 3 8 2.</_></rects>
      <tilted>0</tilted></_>
    <_>
      <rects>
        <_>
          39 18 2 3 -1.</_>
        <_>
          39 19 2 1 3.</_></rects>
      <tilted>0</tilted></_>
    <_>
      <rects>
        <_>
          39 19 2 2 -1.</_>
        <_>
          39 20 2 1 2.</_></rects>
      <tilted>0</tilted></_>
    <_>
      <rects>
        <_>
          39 25 40 13 -1.</_>
        <_>
          59 25 20 13 2.</_></rects>
      <tilted>0</tilted></_>
    <_>
      <rects>
        <_>
          39 26 11 12 -1.</_>
        <_>
          39 30 11 4 3.</_></rects>
      <tilted>0</tilted></_>
    <_>
      <rects>
        <_>
          40 4 5 12 -1.</_>
        <_>
          40 10 5 6 2.</_></rects>
      <tilted>0</tilted></_>
    <_>
      <rects>
        <_>
          40 9 28 26 -1.</_>
        <_>
          47 9 14 26 2.</_></rects>
      <tilted>0</tilted></_>
    <_>
      <rects>
        <_>
          40 10 18 3 -1.</_>
        <_>
          40 10 9 3 2.</_></rects>
      <tilted>1</tilted></_>
    <_>
      <rects>
        <_>
          40 14 3 1 -1.</_>
        <_>
          41 15 1 1 3.</_></rects>
      <tilted>1</tilted></_>
    <_>
      <rects>
        <_>
          40 16 4 8 -1.</_>
        <_>
          42 16 2 8 2.</_></rects>
      <tilted>0</tilted></_>
    <_>
      <rects>
        <_>
          41 14 6 4 -1.</_>
        <_>
          41 14 6 2 2.</_></rects>
      <tilted>1</tilted></_>
    <_>
      <rects>
        <_>
          41 16 4 8 -1.</_>
        <_>
          43 16 2 8 2.</_></rects>
      <tilted>0</tilted></_>
    <_>
      <rects>
        <_>
          41 17 4 10 -1.</_>
        <_>
          43 17 2 10 2.</_></rects>
      <tilted>0</tilted></_>
    <_>
      <rects>
        <_>
          42 14 5 4 -1.</_>
        <_>
          42 14 5 2 2.</_></rects>
      <tilted>1</tilted></_>
    <_>
      <rects>
        <_>
          42 15 2 4 -1.</_>
        <_>
          42 15 2 2 2.</_></rects>
      <tilted>1</tilted></_>
    <_>
      <rects>
        <_>
          42 17 4 6 -1.</_>
        <_>
          42 17 4 3 2.</_></rects>
      <tilted>1</tilted></_>
    <_>
      <rects>
        <_>
          42 21 2 2 -1.</_>
        <_>
          43 21 1 2 2.</_></rects>
      <tilted>0</tilted></_>
    <_>
      <rects>
        <_>
          43 2 8 28 -1.</_>
        <_>
          47 2 4 28 2.</_></rects>
      <tilted>0</tilted></_>
    <_>
      <rects>
        <_>
          43 11 1 3 -1.</_>
        <_>
          43 12 1 1 3.</_></rects>
      <tilted>0</tilted></_>
    <_>
      <rects>
        <_>
          43 12 12 19 -1.</_>
        <_>
          49 12 6 19 2.</_></rects>
      <tilted>0</tilted></_>
    <_>
      <rects>
        <_>
          43 16 8 16 -1.</_>
        <_>
          47 16 4 16 2.</_></rects>
      <tilted>0</tilted></_>
    <_>
      <rects>
        <_>
          43 18 8 10 -1.</_>
        <_>
          47 18 4 10 2.</_></rects>
      <tilted>0</tilted></_>
    <_>
      <rects>
        <_>
          43 19 2 6 -1.</_>
        <_>
          43 19 1 3 2.</_>
        <_>
          44 22 1 3 2.</_></rects>
      <tilted>0</tilted></_>
    <_>
      <rects>
        <_>
          43 21 2 1 -1.</_>
        <_>
          44 21 1 1 2.</_></rects>
      <tilted>0</tilted></_>
    <_>
      <rects>
        <_>
          44 4 5 22 -1.</_>
        <_>
          44 4 5 11 2.</_></rects>
      <tilted>1</tilted></_>
    <_>
      <rects>
        <_>
          44 10 27 24 -1.</_>
        <_>
          53 10 9 24 3.</_></rects>
      <tilted>0</tilted></_>
    <_>
      <rects>
        <_>
          44 16 3 10 -1.</_>
        <_>
          44 16 3 5 2.</_></rects>
      <tilted>1</tilted></_>
    <_>
      <rects>
        <_>
          44 20 6 7 -1.</_>
        <_>
          44 20 3 7 2.</_></rects>
      <tilted>1</tilted></_>
    <_>
      <rects>
        <_>
          44 28 11 12 -1.</_>
        <_>
          44 32 11 4 3.</_></rects>
      <tilted>0</tilted></_>
    <_>
      <rects>
        <_>
          45 25 3 3 -1.</_>
        <_>
          46 26 1 1 9.</_></rects>
      <tilted>0</tilted></_>
    <_>
      <rects>
        <_>
          45 30 1 2 -1.</_>
        <_>
          45 31 1 1 2.</_></rects>
      <tilted>0</tilted></_>
    <_>
      <rects>
        <_>
          45 30 1 2 -1.</_>
        <_>
          45 30 1 1 2.</_></rects>
      <tilted>1</tilted></_>
    <_>
      <rects>
        <_>
          46 4 4 1 -1.</_>
        <_>
          48 4 2 1 2.</_></rects>
      <tilted>0</tilted></_>
    <_>
      <rects>
        <_>
          46 8 4 8 -1.</_>
        <_>
          46 12 4 4 2.</_></rects>
      <tilted>0</tilted></_>
    <_>
      <rects>
        <_>
          46 12 7 4 -1.</_>
        <_>
          46 14 7 2 2.</_></rects>
      <tilted>0</tilted></_>
    <_>
      <rects>
        <_>
          46 19 13 6 -1.</_>
        <_>
          46 21 13 2 3.</_></rects>
      <tilted>0</tilted></_>
    <_>
      <rects>
        <_>
          47 14 21 16 -1.</_>
        <_>
          54 14 7 16 3.</_></rects>
      <tilted>0</tilted></_>
    <_>
      <rects>
        <_>
          47 14 10 2 -1.</_>
        <_>
          47 15 10 1 2.</_></rects>
      <tilted>0</tilted></_>
    <_>
      <rects>
        <_>
          47 15 12 8 -1.</_>
        <_>
          47 19 12 4 2.</_></rects>
      <tilted>0</tilted></_>
    <_>
      <rects>
        <_>
          47 17 4 4 -1.</_>
        <_>
          48 17 2 4 2.</_></rects>
      <tilted>0</tilted></_>
    <_>
      <rects>
        <_>
          47 29 3 1 -1.</_>
        <_>
          48 29 1 1 3.</_></rects>
      <tilted>0</tilted></_>
    <_>
      <rects>
        <_>
          48 3 32 37 -1.</_>
        <_>
          64 3 16 37 2.</_></rects>
      <tilted>0</tilted></_>
    <_>
      <rects>
        <_>
          48 11 6 18 -1.</_>
        <_>
          51 11 3 18 2.</_></rects>
      <tilted>0</tilted></_>
    <_>
      <rects>
        <_>
          48 25 9 4 -1.</_>
        <_>
          51 28 3 4 3.</_></rects>
      <tilted>1</tilted></_>
    <_>
      <rects>
        <_>
          49 8 1 18 -1.</_>
        <_>
          49 17 1 9 2.</_></rects>
      <tilted>0</tilted></_>
    <_>
      <rects>
        <_>
          50 5 2 1 -1.</_>
        <_>
          50 5 1 1 2.</_></rects>
      <tilted>1</tilted></_>
    <_>
      <rects>
        <_>
          50 9 2 14 -1.</_>
        <_>
          50 16 2 7 2.</_></rects>
      <tilted>0</tilted></_>
    <_>
      <rects>
        <_>
          50 12 6 17 -1.</_>
        <_>
          53 12 3 17 2.</_></rects>
      <tilted>0</tilted></_>
    <_>
      <rects>
        <_>
          50 18 3 4 -1.</_>
        <_>
          51 19 1 4 3.</_></rects>
      <tilted>1</tilted></_>
    <_>
      <rects>
        <_>
          50 21 3 2 -1.</_>
        <_>
          50 22 3 1 2.</_></rects>
      <tilted>0</tilted></_>
    <_>
      <rects>
        <_>
          50 22 1 2 -1.</_>
        <_>
          50 23 1 1 2.</_></rects>
      <tilted>0</tilted></_>
    <_>
      <rects>
        <_>
          50 25 1 2 -1.</_>
        <_>
          50 26 1 1 2.</_></rects>
      <tilted>0</tilted></_>
    <_>
      <rects>
        <_>
          51 4 17 6 -1.</_>
        <_>
          49 6 17 2 3.</_></rects>
      <tilted>1</tilted></_>
    <_>
      <rects>
        <_>
          52 13 12 12 -1.</_>
        <_>
          55 13 6 12 2.</_></rects>
      <tilted>0</tilted></_>
    <_>
      <rects>
        <_>
          52 16 8 9 -1.</_>
        <_>
          56 16 4 9 2.</_></rects>
      <tilted>0</tilted></_>
    <_>
      <rects>
        <_>
          52 22 2 1 -1.</_>
        <_>
          52 22 1 1 2.</_></rects>
      <tilted>1</tilted></_>
    <_>
      <rects>
        <_>
          53 0 13 8 -1.</_>
        <_>
          51 2 13 4 2.</_></rects>
      <tilted>1</tilted></_>
    <_>
      <rects>
        <_>
          53 4 9 12 -1.</_>
        <_>
          50 7 9 6 2.</_></rects>
      <tilted>1</tilted></_>
    <_>
      <rects>
        <_>
          53 7 6 16 -1.</_>
        <_>
          53 7 6 8 2.</_></rects>
      <tilted>1</tilted></_>
    <_>
      <rects>
        <_>
          53 14 1 3 -1.</_>
        <_>
          53 15 1 1 3.</_></rects>
      <tilted>0</tilted></_>
    <_>
      <rects>
        <_>
          54 0 10 8 -1.</_>
        <_>
          52 2 10 4 2.</_></rects>
      <tilted>1</tilted></_>
    <_>
      <rects>
        <_>
          54 14 3 2 -1.</_>
        <_>
          55 15 1 2 3.</_></rects>
      <tilted>1</tilted></_>
    <_>
      <rects>
